embeddings
-0.140337 -0.085010 -0.000160 0.069581 0.170976 0.015317 0.111360 0.015846 -0.237535 -0.005053 0.004172 -0.139463 -0.110810 -0.061369 -0.065292 0.086178 0.046388 0.135345 0.149853 -0.020234 -0.027594 0.020696 -0.103367 -0.012890 -0.036771 0.151146 0.006816 -0.083723 0.082153 0.017562 -0.001631 -0.018885 0.064127 -0.070908 0.031304 0.035365 0.023499 -0.152863 0.018761 -0.194358 -0.078243 -0.126549 0.168423 -0.046575 0.179323 0.057302 -0.162696 -0.078372 -0.022579 0.063047 -0.017246 0.018704 0.017714 -0.062625 0.156643 0.143709 -0.087845 -0.039985 -0.099168 -0.094494 0.119017 -0.099297 0.122245 -0.018618 
0.002329 -0.150488 0.072134 -0.111555 -0.132510 -0.163268 0.030178 0.018985 -0.058720 -0.126348 -0.060930 -0.234145 -0.079545 0.105698 0.082400 0.125334 0.013215 -0.090863 0.037648 0.007415 0.113035 -0.015688 -0.136608 0.128569 0.224734 0.067792 -0.098519 -0.034323 0.135513 0.009548 0.034100 0.033142 0.056611 -0.020612 0.242828 -0.026874 0.036162 0.203721 -0.079517 -0.036463 -0.034493 -0.018564 -0.074936 0.096859 0.140898 -0.035439 -0.210725 0.167143 -0.024814 -0.080667 -0.160365 0.204483 0.028232 0.246165 0.057676 -0.121141 -0.104864 0.076870 -0.042476 0.008079 -0.088504 -0.126104 -0.180123 -0.127036 
0.046498 0.094441 -0.015638 0.173766 -0.062750 -0.017920 -0.176691 -0.065416 -0.049011 -0.026100 -0.026864 -0.039747 -0.181033 -0.001942 -0.172388 0.064271 0.145092 0.218029 -0.150430 0.111776 0.083738 0.203926 0.126629 -0.089889 0.055037 -0.213497 0.088398 0.015517 0.130559 -0.203230 0.169066 -0.045563 -0.156628 -0.079714 -0.016699 0.085174 -0.067407 -0.009708 -0.138928 0.101026 0.011313 -0.057277 -0.069967 0.015500 -0.124046 0.031579 0.006329 -0.117738 0.016201 0.021353 0.010956 -0.028557 -0.075076 0.028879 -0.174903 -0.153967 -0.126537 0.144271 -0.025649 -0.068187 0.043449 0.035759 0.148418 -0.022763 
0.011147 0.123430 0.030518 -0.063675 0.028053 -0.017110 -0.130315 0.066445 -0.177019 -0.178246 -0.088037 -0.287135 -0.113586 0.111759 -0.101364 -0.081027 -0.208311 0.057562 -0.078282 0.011336 0.015682 0.019542 -0.046869 0.097823 -0.033703 -0.161915 -0.093468 -0.018885 -0.070215 -0.020006 0.066608 0.032911 0.010419 0.152766 0.003376 0.071971 -0.009490 0.026873 -0.058539 -0.078946 0.252493 0.029492 0.007391 0.020485 -0.184500 0.129517 -0.109393 0.188467 0.154387 -0.141204 -0.030910 0.084766 0.330956 -0.034240 -0.118467 -0.213042 0.118686 0.078551 -0.067566 0.240609 -0.249000 -0.173584 0.271313 0.019659 
0.181463 0.062575 0.004936 -0.006657 -0.144967 0.056218 -0.015558 -0.168849 0.098468 -0.158827 -0.133471 -0.125162 -0.236788 0.224765 0.070957 0.182323 0.031741 -0.121805 0.172541 -0.099267 0.058706 -0.139967 0.009933 0.331768 -0.061338 0.057805 0.057902 0.047629 0.027686 -0.060915 0.082656 -0.084560 -0.209890 -0.140427 -0.006888 0.257005 -0.118297 0.137578 -0.181443 0.264291 -0.047939 -0.126294 0.035873 -0.126315 -0.054342 -0.020131 -0.044385 -0.027870 -0.029170 0.022986 0.276743 -0.187284 -0.128351 -0.001231 -0.181935 0.052620 0.118598 0.131254 0.097540 -0.040017 -0.090131 -0.014348 -0.094507 -0.126169 
0.010328 0.116021 -0.167037 -0.028659 0.138891 0.089125 0.030135 0.014706 -0.274063 -0.031268 -0.134086 0.076192 -0.039731 -0.127770 0.048139 0.048431 -0.259680 0.042354 -0.023860 0.030884 -0.077260 -0.188356 0.014404 -0.075873 -0.041411 0.053722 -0.153897 0.017132 -0.306227 0.013603 -0.169264 -0.056608 -0.031399 0.055247 -0.053923 -0.037391 0.028401 -0.237366 -0.062258 0.177322 -0.156864 -0.157909 -0.018331 0.077763 0.015746 0.191610 -0.089658 -0.149314 0.075823 -0.096115 -0.020021 -0.047956 -0.071592 0.042361 0.201273 -0.024540 -0.014842 0.017258 -0.108525 -0.174430 0.036062 -0.134942 0.073715 -0.012556 
-0.036941 0.079229 -0.002228 0.126855 -0.005885 -0.046047 0.109457 -0.023283 0.206149 -0.061977 -0.056252 -0.032977 -0.062173 -0.085914 -0.036424 0.043117 0.144488 -0.094609 0.152153 -0.042707 -0.211840 0.022009 -0.003719 -0.099790 -0.053531 -0.136085 0.014075 0.022484 -0.067370 0.176462 0.125417 -0.182598 -0.037307 0.266736 -0.008625 -0.088663 0.170975 -0.026766 -0.116735 -0.170386 -0.053499 -0.197578 0.128975 0.091571 -0.012631 0.220051 -0.002157 0.035529 -0.072468 0.060917 -0.213134 -0.120121 0.018953 0.026897 -0.072781 0.025241 0.010454 0.023353 -0.058957 0.052362 -0.284398 0.056716 0.069220 -0.097631 
-0.125782 -0.058518 0.305160 -0.219578 -0.049487 0.125482 -0.102636 -0.134580 0.088380 0.106994 0.122561 -0.021357 -0.166604 0.211861 0.043630 0.103001 0.176043 -0.023398 0.218877 -0.047980 0.125290 0.124020 -0.072656 -0.107419 0.002094 -0.158161 0.107969 0.053723 0.139613 0.028988 -0.061241 0.148743 0.129316 -0.142700 -0.005476 0.045283 0.078294 0.040848 0.075378 0.098569 -0.035764 -0.141650 -0.046245 0.134781 -0.142806 0.092999 0.008405 -0.066049 0.000095 0.064735 0.002337 -0.217900 0.047191 -0.133340 0.086937 0.160095 -0.004346 0.112387 0.257043 -0.207790 0.069456 -0.047629 0.133366 -0.099932 
-0.099106 -0.047776 -0.109597 0.149130 -0.096089 0.055441 0.121421 0.019191 -0.105161 -0.021194 0.120967 0.231043 -0.066701 -0.177716 0.093713 -0.072458 -0.102731 -0.017056 0.155543 0.078334 -0.064638 0.078032 -0.085669 0.052598 -0.127786 -0.067074 -0.052186 -0.035600 0.126205 0.200617 -0.004388 0.043537 -0.008473 0.029541 -0.131955 0.223504 0.031088 0.009955 0.014904 -0.021611 -0.098479 0.152743 0.171307 -0.035540 0.040961 -0.014555 0.210318 0.037817 0.020120 -0.139105 -0.109584 -0.044174 -0.159617 0.093225 -0.149638 0.009114 0.200540 -0.079718 -0.327389 0.178697 0.115319 -0.096175 -0.049949 0.069945 
0.105433 -0.017482 -0.118016 -0.293325 -0.042491 -0.017971 0.239306 -0.091253 0.115065 0.071925 0.175533 -0.014351 -0.044133 0.017079 0.141992 -0.049314 -0.046977 0.182446 -0.060425 0.125599 0.053831 0.168812 0.001740 0.164162 0.269267 -0.022745 0.224585 0.258501 -0.021278 -0.050638 -0.189485 0.146632 -0.177475 -0.004456 -0.046099 -0.192377 -0.168791 0.104700 -0.048808 -0.068070 0.092453 -0.051076 0.056362 -0.047463 -0.064696 -0.017943 0.020506 0.094668 0.010635 -0.095107 -0.090853 0.013381 -0.184259 -0.017771 0.274264 -0.028948 -0.052623 -0.016685 0.109498 0.226426 0.147957 -0.037721 0.061620 0.090670 
0.156934 -0.153075 0.103857 -0.150540 -0.047582 -0.209717 -0.167336 0.135356 -0.154877 -0.052253 0.075777 0.094788 0.028566 0.060707 0.053483 0.002113 -0.005314 0.099533 0.006437 0.064232 0.075832 -0.051251 -0.141679 -0.125049 -0.045632 0.364175 -0.199858 0.135396 -0.148297 0.112213 -0.120898 0.054767 0.007308 0.205629 0.003560 0.055161 0.020793 0.157885 0.018575 0.152339 -0.198418 -0.004193 0.048726 -0.052456 0.022544 0.118330 -0.091338 0.013148 0.087236 -0.065569 -0.015438 -0.108944 0.046937 -0.037188 0.063977 0.048114 -0.051602 0.098284 -0.076495 -0.059996 0.148607 -0.192082 0.090045 0.062281 
0.121370 0.033254 0.069407 -0.008140 0.001133 -0.032256 0.116316 -0.107167 -0.027934 -0.076652 0.161025 -0.030868 0.126716 -0.031349 -0.112940 -0.155657 -0.122636 -0.027341 -0.117116 -0.183338 -0.064041 0.247342 -0.065663 -0.147876 0.170514 -0.207659 0.182816 0.171581 0.076114 -0.090922 -0.119368 0.165179 0.027623 -0.074232 -0.076608 -0.074067 0.008889 -0.094940 0.146672 -0.022523 -0.060548 0.139978 -0.115865 -0.075563 -0.089118 0.123325 -0.172360 0.210322 -0.074863 -0.162991 0.020370 0.189865 -0.005060 0.017295 -0.058810 -0.000841 0.003232 -0.019412 0.094812 0.007005 -0.040834 0.032012 -0.035730 -0.009226 
0.255078 0.180218 -0.203215 0.039251 -0.196930 0.173319 0.197434 0.104152 -0.161462 0.177465 -0.009114 -0.028744 -0.114570 -0.266802 0.016118 0.179832 -0.045101 0.022626 0.027626 0.025891 0.131058 -0.279451 -0.112928 -0.141110 -0.119877 -0.021190 -0.010217 -0.012108 0.196118 0.188110 -0.017871 0.054846 0.056999 0.017549 0.002332 -0.023687 0.048779 0.073014 0.090346 -0.023296 0.020104 -0.052120 -0.040193 0.154536 0.017635 -0.104669 -0.079906 -0.146657 0.135600 -0.200696 0.083458 -0.063976 -0.027130 -0.091670 -0.073140 -0.138331 -0.046424 -0.254838 -0.027174 -0.093652 0.083829 0.040347 0.177641 -0.077118 
-0.300309 -0.002325 0.078327 -0.145355 0.147845 0.234753 -0.092035 0.158361 -0.261300 0.072447 0.073347 0.022447 -0.012228 0.078384 -0.060468 0.008866 0.203117 0.012354 0.049024 0.054504 -0.039593 -0.123880 -0.071333 0.090789 0.009892 -0.128175 0.000221 0.042472 0.093596 0.095186 0.077169 0.029225 -0.052086 -0.017364 0.158611 -0.010212 0.112338 -0.015291 0.104576 -0.158459 0.050394 0.023719 0.007266 -0.033325 0.025394 0.091947 -0.086657 -0.204328 -0.000742 -0.033885 -0.000623 0.002219 0.044878 0.127666 -0.132412 0.108463 0.078952 -0.053405 -0.204540 -0.039828 -0.166299 0.096792 -0.007196 0.038555 
0.115535 -0.004198 -0.120491 -0.131364 0.060993 0.124729 0.072891 -0.223342 0.158544 0.000226 0.164893 -0.067070 -0.148767 -0.019301 0.146747 -0.109843 0.150966 0.014653 -0.064108 -0.040588 0.037280 0.069392 0.046543 -0.104674 -0.095293 0.102327 -0.117932 0.112593 0.037514 0.142372 -0.051950 0.001562 -0.017432 -0.023330 0.130790 -0.026074 -0.065863 -0.036506 0.007703 0.169541 -0.004349 -0.131526 -0.104475 0.137044 -0.082605 0.189603 0.075245 0.002051 -0.042649 0.111466 -0.072110 0.066066 -0.001070 -0.041099 0.121740 -0.023410 0.071836 0.069102 0.110059 -0.008690 0.042155 0.039565 -0.190754 0.138658 
0.210146 0.047302 -0.129878 -0.153754 0.094938 0.069772 0.044471 -0.112059 0.032934 -0.135447 -0.248196 -0.080832 0.102372 0.065015 0.071706 -0.011803 0.031438 -0.075664 0.102054 0.163140 -0.069666 -0.010384 -0.107777 -0.158316 0.025429 0.002486 -0.083425 0.121088 0.078440 -0.013795 -0.221473 0.003336 -0.057709 -0.064587 0.122077 -0.080270 -0.105631 0.213685 -0.191240 0.091337 -0.182367 -0.101025 0.155374 0.101272 0.074962 0.143149 0.079588 0.259871 0.050993 -0.064493 0.045182 -0.092259 0.024809 0.041987 0.177871 -0.091819 -0.056639 -0.033016 0.053707 0.132279 -0.139133 0.044370 0.071939 -0.061329 
-0.065585 -0.019102 -0.124272 0.188753 -0.065037 -0.046823 -0.076328 -0.025276 0.047505 0.042837 -0.177538 -0.188923 0.273966 -0.000105 0.059911 -0.147704 0.052944 0.169432 -0.074690 0.200277 0.205993 0.059899 -0.003790 -0.174439 0.097427 0.049747 -0.140249 -0.190058 -0.129901 -0.014684 -0.125436 0.062431 0.067051 -0.019469 0.119065 -0.052670 -0.006894 -0.113432 -0.151643 -0.022770 -0.028851 0.091261 -0.021770 -0.032440 0.011685 -0.063031 -0.155323 0.083232 -0.055478 0.129265 0.083004 -0.053213 -0.086382 0.051879 0.013395 -0.018162 -0.180005 0.070388 -0.169670 0.000412 0.162937 -0.035993 -0.138291 0.078634 
-0.097603 0.042953 -0.031538 0.013389 -0.136823 0.017813 0.097866 0.001585 -0.167016 -0.072750 0.040200 0.093610 -0.011647 -0.026087 -0.030124 -0.237858 0.151963 0.132353 0.076570 0.008403 -0.018957 -0.032695 -0.109308 0.239484 0.004910 0.121944 0.026512 0.041056 -0.058725 0.145472 -0.134347 -0.150076 0.095473 0.115044 0.025776 -0.022507 -0.035474 -0.359321 0.198937 0.100003 0.012184 0.239905 0.056757 -0.060131 0.145640 -0.107962 0.061485 0.019227 -0.007769 -0.039136 0.027087 -0.015419 -0.042671 -0.079613 0.090480 -0.031639 -0.005571 0.084059 0.092249 0.158019 0.072396 -0.141503 0.020651 -0.044494 
-0.020629 0.038971 0.093643 -0.215917 0.102873 0.179425 0.001746 0.210526 -0.093001 0.039545 0.064908 -0.199691 -0.022154 -0.177972 -0.086298 0.008382 0.024031 0.117076 -0.001232 -0.168285 -0.148275 0.052210 -0.228044 -0.166566 0.054544 -0.031559 0.171651 0.031594 0.145237 0.040590 -0.070172 -0.048739 -0.139904 -0.212638 -0.077397 0.036798 -0.014504 0.215637 -0.028481 -0.045854 -0.052968 -0.413736 0.144668 -0.071284 -0.043317 -0.064686 0.093583 -0.090441 0.057283 -0.028193 0.140090 0.103482 -0.204132 0.252041 -0.049389 0.062290 -0.019949 0.075580 -0.018324 -0.079599 -0.092444 -0.004174 -0.072930 -0.174204 
0.023411 -0.001143 -0.081882 -0.021314 0.066451 -0.097473 0.115778 -0.075316 -0.092777 0.028613 -0.069069 -0.073845 -0.039638 -0.090140 -0.164097 -0.212725 0.108307 -0.028797 0.072332 0.120134 -0.111154 -0.017753 -0.114245 0.191758 0.125913 0.015924 0.087981 0.133251 -0.008273 -0.065667 0.104732 0.040561 -0.125750 -0.023740 0.133392 -0.089021 -0.130346 -0.117729 -0.297919 0.099658 -0.002994 -0.058032 0.118152 0.080037 -0.177456 0.111971 -0.103346 -0.230663 0.085125 0.015298 -0.263022 -0.048225 0.038957 0.006934 -0.086724 0.032033 0.057002 0.088384 -0.035355 0.068810 0.017291 -0.036410 0.111238 -0.016443 
0.119860 0.081777 -0.088606 0.086399 -0.135217 0.196483 0.241010 -0.170729 0.028658 -0.159062 0.159179 0.112267 -0.166076 0.133332 -0.063536 -0.120688 0.000826 -0.075566 -0.065043 -0.105542 -0.062036 0.067349 0.106651 -0.078937 -0.070781 0.035949 -0.088937 0.054370 -0.073779 -0.022048 0.023644 0.049931 0.029268 0.178130 0.091801 0.099161 -0.076975 0.033115 -0.003249 0.170443 0.020125 -0.054455 -0.012450 -0.035457 -0.245431 -0.121216 -0.065669 0.040929 -0.068035 -0.016711 -0.126312 0.072523 -0.005984 0.041612 0.001540 0.155780 0.118754 0.107049 0.097856 -0.043292 0.088931 -0.177312 -0.032312 0.166867 
0.090978 0.076358 -0.105377 -0.058691 -0.003634 0.061358 -0.021377 -0.263682 -0.140323 0.118257 -0.072574 0.029450 0.147543 0.086078 0.095228 0.045893 -0.193172 0.004951 0.072087 0.059270 -0.070415 -0.154888 -0.170834 -0.035285 -0.060711 -0.072592 -0.044259 0.020808 -0.033186 0.209377 0.161678 -0.229905 0.097900 -0.115177 -0.055355 -0.048677 0.032807 -0.000525 0.052753 -0.063899 -0.175287 0.049836 -0.057597 0.061330 -0.090910 0.193339 -0.058345 0.064122 -0.037434 -0.000483 -0.110660 0.026336 -0.050217 -0.136717 -0.057649 -0.161386 0.051586 -0.042611 0.146549 0.062216 0.105578 0.218973 -0.150235 0.055284 
0.155086 -0.164482 -0.029371 -0.058765 0.188562 -0.157623 0.038236 0.110811 0.238663 -0.058531 -0.121324 -0.049633 -0.084573 0.046611 0.023606 0.014566 0.201955 0.120809 0.076888 0.092018 0.110788 -0.124379 0.079705 0.074513 -0.058088 0.122242 0.241791 0.039812 -0.145303 -0.025135 0.095255 0.000679 0.041956 -0.082833 -0.115885 -0.077904 0.205911 0.010160 -0.065631 -0.102868 0.051129 0.098162 -0.002930 -0.002728 -0.036074 -0.018260 0.033262 -0.291230 -0.005191 -0.284803 -0.240359 -0.010194 -0.042730 -0.061358 0.154845 0.028191 -0.075948 -0.046001 -0.054213 -0.059637 -0.175090 0.048145 0.056509 0.164711 
-0.077546 -0.043523 -0.049000 -0.022874 -0.226973 0.004815 -0.043615 0.159738 0.159417 0.076323 -0.090019 0.103929 -0.264168 -0.000170 0.068389 0.070645 -0.042337 -0.104262 -0.077770 0.038960 -0.223744 -0.195914 -0.050870 -0.116907 0.039634 0.092973 -0.032117 0.131455 0.058488 0.095847 -0.133689 -0.241456 -0.077647 -0.188194 0.173826 -0.000971 -0.062431 0.037305 0.060394 0.154917 0.149400 0.173737 0.130018 0.018156 -0.022269 0.178158 -0.004334 -0.100018 -0.007300 0.047759 0.074595 0.096267 0.139117 0.027479 -0.125264 -0.250024 0.095164 0.012862 -0.156446 0.009390 0.107544 0.182466 0.131552 -0.048654 
-0.086315 -0.052360 -0.029185 0.139434 -0.084158 0.113286 0.047637 0.088556 0.167727 -0.041368 0.073204 -0.035675 0.306682 -0.093325 0.010596 -0.064529 0.062232 0.028224 -0.040138 -0.207722 0.019192 -0.148425 -0.050566 -0.051656 -0.064549 0.061095 0.121632 -0.055432 -0.033695 0.020242 -0.004989 -0.102536 -0.043395 0.008623 -0.033154 -0.158758 -0.017651 -0.007016 0.062339 0.046383 0.114406 0.178780 0.198421 0.135733 -0.088587 -0.058833 -0.132599 0.052938 -0.068339 -0.064401 0.134818 0.242757 0.020237 0.001819 0.194428 -0.172291 -0.180260 -0.023556 0.080122 -0.133224 0.117902 -0.062057 -0.027136 0.001434 
-0.216091 0.017070 0.079405 -0.194798 -0.234654 0.078996 0.116142 0.055937 0.122361 0.036466 -0.033206 0.008836 -0.130612 0.079036 -0.148329 -0.059616 0.069540 -0.116620 -0.014279 0.050624 -0.179739 -0.038212 -0.094270 0.071683 -0.062177 -0.155024 0.316623 -0.091649 -0.143482 -0.109176 -0.031381 -0.020908 -0.089600 -0.231495 0.225207 -0.024168 -0.113710 0.114966 -0.225228 -0.073614 -0.035707 0.012527 0.063411 0.058952 0.057520 0.024159 -0.037431 -0.054771 0.260122 0.089684 -0.010846 -0.114327 -0.339018 0.062284 0.183669 -0.010931 0.056449 -0.122177 0.000648 0.060489 -0.127625 -0.049354 0.025833 0.045974 
0.121219 0.025548 0.060716 -0.051882 -0.137850 -0.075774 -0.003481 -0.091686 0.141467 0.217530 0.076174 0.096025 -0.181308 -0.109453 0.085541 0.126492 0.025288 0.111158 0.108727 0.105711 0.115154 -0.078495 0.125730 -0.046461 0.348852 -0.104760 -0.049230 0.120942 -0.119301 -0.006786 0.173656 0.094932 0.044301 -0.129328 0.000423 -0.141401 -0.078026 0.086275 -0.103671 -0.109260 0.094274 -0.067054 0.125935 -0.081868 0.052737 -0.157214 0.219873 0.085184 0.028702 -0.121888 -0.116942 -0.162720 -0.007499 -0.149561 0.135938 0.051282 -0.024284 -0.089423 -0.064605 0.023961 -0.027236 -0.033942 0.095270 0.094281 
0.013123 -0.084606 0.011740 -0.049875 -0.030493 0.035586 0.055619 0.033476 -0.119753 0.079172 -0.037868 -0.223584 -0.032158 0.193866 0.021398 0.105973 0.064614 0.154912 -0.009775 0.097415 -0.084645 0.013706 0.200586 -0.041508 -0.064191 -0.075531 0.065353 -0.022636 0.043204 -0.110430 -0.002879 -0.112212 -0.062001 0.033496 0.030689 -0.166498 -0.063248 -0.095561 0.159739 0.060036 0.122155 0.038678 -0.007567 -0.052369 -0.100716 -0.220089 -0.178801 -0.121424 -0.024686 0.058343 0.022181 -0.092223 -0.054909 0.089336 -0.043648 0.058517 0.107205 -0.150413 0.122532 -0.216040 0.048909 -0.244492 0.104568 -0.133397 
0.036195 -0.051025 0.158669 0.201618 0.084831 -0.095787 -0.028106 0.058929 0.212866 -0.054150 -0.166001 -0.021924 0.088369 0.104970 -0.023028 0.015452 -0.040432 0.094179 -0.159775 0.317253 -0.048623 0.125545 0.019041 0.050308 0.168317 -0.043147 -0.043948 0.017104 -0.060822 0.109341 0.048355 -0.016287 -0.132482 -0.032989 0.024919 -0.084036 -0.008647 -0.142992 0.005236 -0.108565 0.158553 0.041091 0.079224 -0.040070 0.122272 0.096742 -0.173189 -0.085954 -0.001420 0.175896 0.101914 0.115072 0.038702 -0.160474 0.292184 -0.184855 0.023395 -0.059258 0.039698 0.048742 -0.165683 -0.048328 -0.164019 0.036345 
0.202779 -0.013956 -0.026316 0.147248 0.009981 0.079426 -0.066577 -0.059410 0.001203 -0.005539 0.012117 -0.010942 0.162136 -0.068804 -0.056445 0.086419 -0.095180 -0.123468 0.024315 0.100291 0.051810 -0.025856 -0.062336 -0.021841 0.140528 -0.011567 0.020174 0.126857 -0.001536 -0.148400 0.036860 -0.123162 0.051466 0.075940 0.048701 0.105829 0.122367 0.047959 -0.055101 0.144040 0.028843 0.150805 0.108028 -0.005326 -0.155714 0.029811 -0.114658 -0.066164 0.153946 0.009008 0.089348 -0.011576 -0.160685 0.122657 -0.047200 0.237005 -0.144447 0.268016 0.140666 -0.126757 -0.087187 -0.026508 -0.058041 0.115575 
0.102789 0.096685 -0.201621 -0.004827 0.017195 -0.023699 -0.014563 0.011735 0.044680 0.090822 -0.038770 -0.042185 -0.024964 -0.112154 -0.054903 0.117466 0.036214 -0.015565 -0.058580 0.003256 0.066076 -0.126439 -0.025968 0.046839 0.230780 0.167476 0.094582 -0.140422 -0.098855 -0.086525 0.036705 -0.063081 -0.158849 0.013105 0.023621 -0.031891 0.024059 -0.116049 0.158713 -0.127228 0.145474 -0.086953 0.022479 -0.183457 -0.192904 0.079553 0.106433 -0.094975 -0.022161 -0.194155 -0.009453 0.167070 -0.056922 0.071646 0.144176 -0.103987 0.055840 -0.030165 -0.016456 0.106431 0.069879 0.151684 -0.239687 -0.121691 
-0.056962 0.268063 0.092433 0.125808 -0.122436 0.159873 0.137291 -0.024028 -0.241223 0.347908 0.025708 -0.110717 -0.139089 0.008053 0.000172 -0.061345 0.024581 -0.004885 -0.026864 -0.141503 0.006424 -0.125024 0.071374 0.059805 -0.019319 -0.018570 0.040771 0.028340 -0.002871 -0.034208 0.007889 0.042436 -0.028529 0.171283 -0.056091 0.072873 0.125858 0.105716 0.069316 -0.066069 0.075624 -0.075186 -0.006757 -0.091062 0.169878 -0.026753 -0.217420 0.206989 -0.013088 0.018226 -0.008284 -0.007324 0.173817 0.149140 -0.045296 -0.124823 0.113217 -0.091011 0.138852 -0.011503 -0.046064 0.301784 0.073777 0.029317 
0.064176 -0.051746 -0.233691 -0.018493 0.141421 -0.036448 -0.124530 0.023164 0.068481 0.127277 0.212680 0.113275 -0.113939 -0.299743 0.073495 -0.045645 -0.063071 0.082341 -0.034667 -0.037869 -0.142933 0.108377 -0.282867 -0.080940 0.091933 0.016936 0.048444 -0.022201 0.062723 -0.021488 -0.061634 -0.073610 -0.030447 -0.007287 0.007368 0.212257 -0.162695 -0.048756 0.112625 -0.026407 0.081179 -0.112717 -0.004897 -0.049534 -0.027605 0.073053 -0.146833 0.121981 0.074561 -0.067889 -0.000558 0.097379 -0.146108 -0.116811 0.100365 0.160699 -0.190717 0.053718 -0.046584 0.102647 -0.089999 -0.064922 -0.072230 -0.109746 
0.020367 -0.052535 -0.009819 -0.046413 0.038334 -0.022785 0.068828 0.041120 0.088339 0.082181 0.071815 0.136888 0.162700 0.100956 0.086679 0.074516 0.045177 -0.128485 -0.048399 -0.083303 -0.077223 -0.084784 0.161229 -0.078144 0.121606 0.094090 -0.012926 -0.127914 0.075832 0.157680 0.045341 -0.060581 0.021777 -0.074122 -0.085672 -0.016732 -0.056490 0.056144 -0.049253 0.139181 0.059624 0.176261 -0.014591 -0.187925 -0.168601 0.015423 -0.117571 -0.061551 -0.142363 0.029974 -0.000179 0.021727 -0.099501 0.079402 0.077386 0.094476 0.131828 0.048320 0.125205 -0.085266 0.008050 0.053962 -0.106642 0.176865 
0.032148 0.146745 -0.017888 0.045048 -0.229181 0.170189 -0.018357 0.053435 -0.146249 0.041593 0.057612 0.156482 0.155021 -0.027074 0.097572 -0.077932 0.212712 0.139251 0.069406 -0.007384 -0.099539 0.033876 -0.030164 0.214302 0.014984 -0.016993 0.100360 0.076651 -0.163987 0.073771 -0.113751 -0.012655 0.128706 0.028734 0.179875 -0.020831 0.013793 0.066911 0.131349 -0.063290 0.136555 0.009578 0.225431 -0.128235 0.068397 0.073780 0.076618 0.014875 -0.036695 0.151379 -0.069380 0.039642 -0.237523 -0.071760 0.049909 -0.123785 -0.025437 -0.008373 0.014700 -0.182915 -0.157804 0.112118 -0.154365 -0.020153 
-0.135095 -0.119418 0.011167 0.115238 0.018981 0.071153 0.274363 -0.033900 -0.069221 -0.139493 -0.107427 0.059268 -0.252205 -0.325771 -0.002280 0.095762 0.047355 0.085055 0.040893 -0.196258 -0.081423 -0.131804 -0.026457 -0.044051 -0.250890 -0.043620 -0.213144 0.082688 -0.218419 0.113207 0.008511 0.009160 -0.164324 0.080312 -0.030771 0.143137 -0.105053 0.150907 -0.160579 -0.163425 0.020239 0.230145 -0.027280 -0.155780 -0.047318 0.025991 -0.042698 0.260409 -0.072964 0.061764 -0.100266 0.005723 0.020867 -0.063623 0.093361 -0.106300 0.228179 -0.068634 0.054710 0.081976 0.014179 -0.146404 -0.148856 -0.067728 
0.164951 -0.211557 0.130286 0.030816 0.190589 0.140708 -0.281560 0.106249 -0.079760 -0.091265 0.111928 0.088351 0.107691 0.114489 0.125074 -0.182954 -0.025319 -0.437048 -0.014526 -0.098914 -0.108444 -0.036577 0.044938 -0.097923 0.113102 0.174570 -0.037623 -0.080210 0.037344 0.155753 -0.133429 -0.005818 -0.271353 -0.086569 0.072732 0.192137 -0.014590 -0.034784 -0.005907 -0.154676 -0.085492 -0.149243 0.132623 -0.002560 -0.076028 -0.050472 -0.016189 0.051582 -0.041490 -0.068651 -0.093834 -0.000688 0.103863 -0.002668 -0.027807 -0.068490 0.022962 0.130642 0.146937 -0.023261 -0.088566 -0.077339 -0.004478 -0.167802 
0.006406 -0.201860 0.153362 -0.040075 -0.040309 0.040305 -0.023203 0.042823 -0.029211 -0.037969 0.022084 0.276821 -0.090721 0.020841 -0.027940 -0.082134 0.129628 0.138963 0.015022 0.131405 -0.117293 -0.027240 -0.209621 0.117625 0.235092 0.027162 -0.181209 0.018943 0.005976 -0.301435 0.007151 -0.288859 0.084042 -0.126129 0.000480 -0.073812 -0.170450 -0.024218 -0.105016 0.048789 0.130154 -0.023913 0.063931 0.064405 -0.217776 0.101223 -0.093776 0.123905 -0.047039 -0.110283 0.073687 -0.029866 0.063578 0.018877 -0.179031 -0.270629 0.166999 -0.107429 -0.069268 0.044317 -0.053055 0.054079 -0.037371 0.022236 
-0.038827 -0.080189 -0.092429 -0.032260 0.140152 -0.169371 -0.077219 -0.120659 0.032293 0.084219 0.031475 -0.222840 0.076976 0.082381 -0.120561 0.047688 -0.097275 0.074169 -0.074124 0.139658 -0.146244 -0.039559 -0.001726 0.010503 -0.010493 -0.066229 -0.050960 -0.142895 0.156431 -0.126572 -0.056351 0.013375 0.060730 -0.100130 0.092753 0.112971 0.053138 -0.075291 0.041529 0.087670 0.100186 -0.110960 0.086469 0.077490 -0.036835 -0.144483 0.006568 -0.110329 0.077141 -0.007171 -0.065903 0.044277 -0.019447 -0.005178 0.100731 0.096909 0.052302 -0.092670 -0.158218 0.105686 0.035714 -0.061660 -0.075403 0.028240 
0.161173 0.093323 -0.071160 -0.202953 -0.007315 0.176299 0.036820 0.053572 -0.160986 0.056594 0.238004 -0.122146 -0.024360 -0.026750 -0.055940 0.061447 -0.072251 -0.100172 -0.050728 -0.062518 0.230643 0.158691 0.004222 0.272184 -0.003993 -0.169888 0.021047 0.010739 -0.120949 -0.085630 0.110520 0.030736 -0.061161 -0.057323 0.286217 0.070451 0.014226 0.210173 0.102815 0.035662 0.045328 0.013419 -0.162197 0.042015 0.021493 0.153840 -0.086969 0.002737 0.161490 -0.181681 0.002375 0.129112 -0.059935 0.036323 0.025181 -0.207313 -0.051399 0.080463 0.011641 0.027229 0.011961 0.065924 0.071545 0.016048 
0.303945 0.126331 0.079740 -0.032224 0.034297 -0.021917 0.042756 -0.049551 -0.032004 -0.070616 -0.151511 0.048790 -0.077644 -0.138173 -0.101441 -0.087024 0.003880 0.074519 -0.128786 0.033306 -0.206541 0.013735 0.162406 -0.038474 0.122364 -0.247946 -0.119472 0.010803 0.044363 -0.018309 -0.131391 0.064366 0.032372 0.274815 0.054005 -0.011169 0.148061 -0.039839 -0.006875 -0.000561 -0.114349 0.072821 -0.043155 0.035118 0.090425 0.205599 0.045234 -0.012679 0.368280 -0.143507 0.014477 0.036280 0.023881 0.036722 -0.071490 0.142233 0.048459 0.027408 -0.110212 0.036569 -0.085116 0.074729 -0.036752 -0.113877 
0.156406 0.139504 -0.052481 -0.050477 -0.120095 -0.144725 0.005781 -0.109082 0.009040 -0.176695 0.091066 0.029862 0.139173 0.018988 -0.176809 -0.134301 -0.077450 -0.052501 0.039841 -0.014385 -0.071433 0.085189 0.146678 0.096811 0.103883 0.094489 0.054089 0.004498 -0.148104 -0.156045 -0.206368 -0.015264 0.002435 -0.171746 0.006225 -0.208462 -0.091231 -0.051915 -0.075880 0.073500 0.145854 0.079538 -0.161037 -0.082285 -0.258135 0.013344 -0.019941 0.001106 0.070977 -0.138366 -0.104534 0.065535 -0.081210 0.107745 -0.012765 0.053497 -0.114930 -0.185359 -0.272633 0.037911 -0.038693 0.054720 0.068254 -0.009038 
0.020059 -0.005904 0.208857 0.074986 -0.074799 0.017783 0.019710 0.185073 -0.105863 -0.102453 -0.074041 -0.058805 0.069873 -0.130766 0.017913 -0.108802 -0.026136 0.231034 0.047851 -0.034085 -0.013005 -0.005882 0.099644 0.078456 -0.045770 -0.033036 0.037068 0.031843 -0.097304 -0.102419 -0.101230 -0.003732 0.041474 0.085780 0.061469 0.064427 -0.023985 -0.035672 -0.065178 -0.045032 -0.080761 -0.112880 -0.147649 0.122922 0.027911 -0.090932 -0.076692 -0.093310 0.082741 -0.098210 -0.028320 0.009323 0.045567 0.254555 -0.034313 -0.116808 0.040247 -0.007830 -0.139080 -0.109752 0.156228 0.069518 -0.106328 -0.070295 
0.126156 -0.044765 -0.081257 0.066281 0.021165 0.010334 0.097483 -0.089443 -0.021834 -0.072601 0.037077 -0.038143 -0.015448 -0.128906 -0.116261 -0.032463 0.035970 -0.042890 0.200314 0.051294 0.194903 -0.034513 -0.190651 0.208037 0.066709 0.129112 0.029056 0.029266 -0.051755 0.016560 -0.107396 0.153143 0.187056 -0.103468 -0.182469 -0.021748 0.041421 -0.001332 0.052429 0.074008 0.013505 -0.003292 -0.114069 0.098562 0.235609 -0.037666 0.141326 -0.129850 0.194247 0.007106 0.118002 0.058538 -0.201169 0.059878 -0.077981 -0.043210 0.059512 0.042515 0.006826 -0.081001 0.023055 0.082987 0.078179 -0.157683 
0.065939 -0.034320 0.021717 -0.051390 -0.011381 -0.092932 -0.078425 0.022685 0.093721 -0.149187 -0.009168 -0.051555 -0.038241 -0.003327 0.059364 0.052563 -0.253328 -0.029136 -0.075777 -0.090073 0.173713 -0.073005 -0.033929 -0.041938 0.053957 0.062360 0.068072 -0.049084 0.075549 -0.028803 -0.022761 0.087915 0.070565 0.196058 0.079744 -0.093560 0.021759 -0.043441 -0.056462 0.016074 -0.013013 -0.050400 0.150132 0.314973 0.067650 -0.127070 -0.036865 0.101347 -0.130191 -0.020040 0.102718 -0.034292 0.136230 0.039347 -0.065487 0.034229 -0.037141 -0.061685 -0.030395 -0.032878 0.003243 0.055111 -0.022432 0.068870 
-0.064389 0.061030 -0.024897 0.144062 0.106001 0.193985 0.041821 -0.015649 0.021762 0.012677 -0.049759 0.003813 -0.049885 -0.097026 -0.120785 -0.090959 0.218579 0.032173 0.068713 -0.056137 0.017433 -0.027542 -0.109452 0.120290 -0.091200 0.274072 -0.090045 0.005617 -0.088720 -0.040027 -0.004638 0.099105 0.041023 -0.053237 -0.127164 0.007001 -0.073338 0.066680 0.028152 -0.020763 0.068911 -0.032064 0.086467 0.274020 -0.039018 -0.100957 0.293650 0.044992 -0.223130 0.039315 -0.177785 0.152107 0.061950 -0.062340 -0.101020 0.039524 0.030720 0.077083 0.060897 0.064187 0.075423 -0.094747 -0.181607 0.017612 
0.008358 0.091329 -0.035952 0.266100 0.057402 0.102484 -0.116329 0.039015 0.090649 0.060490 -0.063138 0.018585 0.009192 0.171583 -0.134538 0.163977 -0.098269 -0.127694 -0.043270 0.058076 -0.000093 -0.028496 0.049346 -0.048402 -0.126650 -0.153148 -0.164583 0.083962 -0.178034 -0.188743 -0.097225 -0.097396 -0.000077 -0.075912 0.235012 0.021282 -0.068727 0.021430 -0.008453 0.159296 -0.129473 -0.042712 0.173787 -0.024572 0.147388 -0.068589 0.015096 -0.046782 -0.019012 0.110249 0.138300 -0.179782 0.022400 -0.101155 -0.033571 -0.023765 -0.107439 -0.002934 0.109700 -0.080190 -0.025684 0.094265 -0.119344 -0.136817 
0.037279 -0.049689 0.089836 0.052542 0.000517 0.117978 -0.012444 0.177231 0.014236 0.080655 0.216923 0.119553 -0.064612 0.037555 -0.208451 0.140315 0.078205 -0.014306 -0.013534 -0.027319 0.046836 -0.070863 0.115390 0.122200 -0.003971 0.010900 -0.074456 0.168976 0.072042 0.009199 0.084570 -0.087238 -0.000566 -0.253242 -0.062558 -0.184443 0.038410 -0.034043 -0.039786 0.127439 -0.194972 -0.006676 -0.012696 0.063434 -0.028802 0.046273 -0.162761 0.103936 -0.143564 0.042023 0.086055 -0.003752 -0.053109 -0.103975 0.013866 0.121935 -0.092492 -0.012203 -0.048353 -0.165675 0.020155 0.112059 0.058067 0.080540 
-0.035672 0.010991 -0.024296 0.005926 0.155119 -0.048484 -0.002050 -0.090471 0.000473 0.007790 0.090814 -0.192784 0.009427 0.117933 -0.045870 -0.025593 -0.090300 -0.035435 0.008396 0.006293 -0.077638 -0.194840 -0.040034 0.094667 0.073438 -0.115806 -0.014190 -0.010193 -0.065367 -0.179576 0.052170 0.217557 0.118651 0.107919 -0.196694 -0.088226 0.124477 0.037948 0.143151 0.010702 -0.042617 0.089116 -0.123354 0.006860 -0.025865 0.028754 -0.051670 0.055988 -0.089527 -0.070442 -0.062505 0.029822 0.096523 0.079790 0.062861 -0.014319 -0.015276 0.054920 0.147887 -0.053375 0.027389 -0.126395 0.113825 -0.071219 
-0.110392 0.069725 0.012794 -0.064089 0.041744 -0.235131 0.136435 0.125582 0.052832 0.025268 -0.024504 0.036634 -0.161899 0.031210 -0.103099 -0.097185 -0.044139 -0.088739 -0.140285 0.005075 0.067599 0.159053 -0.217695 0.031857 -0.088711 0.106899 -0.011224 0.146554 0.015157 0.033470 -0.013614 -0.078893 0.264208 0.017487 0.045967 -0.038154 0.036246 0.094726 -0.110822 0.058565 0.201179 0.120280 -0.097733 0.192022 -0.089482 -0.034685 0.111982 0.006017 -0.175733 0.064674 -0.095556 0.029732 0.096684 0.160166 0.142785 -0.196799 0.020988 -0.054951 0.110299 -0.042919 -0.098927 -0.065404 -0.030417 -0.015868 
-0.018846 -0.039460 0.050417 0.041797 -0.054686 0.100771 -0.078471 -0.074432 -0.119330 0.137150 0.036199 0.137836 0.183024 -0.022743 -0.142975 -0.001098 0.053967 -0.117820 0.071282 -0.087066 0.083834 -0.051404 -0.123595 0.050435 0.022871 -0.234917 -0.053920 0.107440 -0.012906 0.079731 0.024613 -0.043096 0.051847 0.153625 0.061082 -0.131173 0.256083 -0.047552 0.050873 -0.130105 -0.051047 0.003891 -0.231155 -0.022971 -0.050704 -0.045384 0.063247 0.141001 -0.058931 -0.061107 0.003604 -0.079081 0.164180 0.010590 -0.040089 0.013317 0.093413 -0.001288 -0.062772 -0.033174 -0.009200 0.053583 -0.080044 0.007958 
-0.160300 0.065675 0.066214 0.085574 0.002892 0.038242 0.134611 -0.087555 0.099952 0.062589 0.036984 -0.117636 0.055327 0.160081 0.130564 -0.021975 0.106598 -0.098362 -0.003038 0.107031 -0.242075 -0.077241 -0.111365 -0.031857 0.109643 0.071214 -0.011469 0.058247 0.246942 -0.228546 -0.097351 -0.086740 0.151538 0.039007 -0.088647 0.023209 0.215019 -0.074605 0.050128 0.139865 0.084834 -0.312472 -0.089806 -0.084070 -0.006119 -0.019984 0.100706 -0.087533 -0.230773 -0.026732 -0.054337 -0.003120 0.010318 0.062841 0.124019 0.006796 0.162976 -0.185259 0.081030 0.011986 0.063307 -0.030975 0.038512 0.005440 
-0.088678 0.078607 0.171976 0.206937 0.194414 0.010568 0.048880 -0.009873 0.012144 -0.004348 0.069336 -0.034151 -0.062710 -0.066945 -0.076271 -0.010955 -0.001859 0.080367 0.047615 -0.183073 0.214546 -0.024809 -0.063823 -0.106061 -0.068967 0.077599 0.043988 0.100517 0.120234 0.068192 -0.151705 -0.036374 -0.090594 0.116635 -0.072682 0.140870 0.099044 -0.145063 0.055546 -0.033304 -0.139244 -0.123358 0.060262 -0.076118 0.013710 -0.015817 0.089545 -0.082135 0.135768 0.057130 -0.089569 0.042149 -0.031881 0.112503 -0.223834 -0.147974 -0.198903 0.146470 -0.075716 -0.177859 -0.014509 -0.094616 -0.003957 0.047693 
0.085090 0.160155 -0.061933 -0.026562 -0.000718 0.037777 -0.118631 0.007421 -0.047057 0.072585 -0.011834 0.053767 0.295038 -0.105122 0.073960 -0.087450 0.158886 0.108194 -0.141578 0.136393 -0.071809 -0.061471 0.144736 -0.067373 0.083739 -0.059476 -0.154791 0.138080 -0.106463 -0.010106 -0.109575 0.195685 -0.094792 0.228290 -0.210110 -0.312445 0.152369 -0.022551 -0.004111 -0.120224 -0.118674 -0.027340 0.010635 -0.026369 -0.119450 0.033563 -0.156448 -0.014745 0.113378 -0.079046 -0.067770 -0.059722 0.068797 -0.009195 0.096141 0.038310 -0.113066 -0.008087 -0.044271 -0.137187 0.065982 -0.186970 0.143499 -0.100609 
0.062161 0.143531 0.095878 0.046956 -0.044536 -0.051358 -0.079946 -0.082695 -0.145924 -0.089695 -0.272990 -0.073927 0.166435 -0.001096 0.006296 0.020273 -0.206354 0.004316 -0.130284 0.026542 -0.123432 0.136662 0.199548 0.019265 -0.165914 -0.071767 -0.007815 -0.004232 -0.033719 0.136162 -0.031108 0.024829 0.049835 0.009819 0.045084 -0.002614 0.067698 -0.060709 0.055241 0.054990 -0.090679 -0.143713 0.033905 0.069867 0.009172 0.148813 0.181070 0.031372 0.011217 -0.178470 -0.077940 0.178541 0.139408 0.008644 -0.234640 -0.079729 0.000387 -0.163105 0.036605 0.082082 -0.054561 0.083348 -0.038494 -0.008355 
0.004854 0.143523 -0.042433 -0.079287 0.124010 -0.114909 0.100012 -0.141316 -0.039286 -0.030574 -0.177174 0.142670 0.134314 0.014302 0.064088 -0.065641 -0.081194 0.128836 -0.127278 -0.131376 0.106383 0.062973 0.074896 -0.140673 -0.050303 -0.020516 -0.067450 0.090300 -0.112786 -0.070035 -0.002245 -0.030417 0.012422 0.084621 0.042361 -0.135925 -0.010496 0.076353 0.004376 -0.186291 0.033574 0.119486 -0.064033 0.026879 -0.187961 -0.031711 -0.043775 -0.100425 0.074369 -0.085478 0.175938 -0.027989 0.010656 -0.215801 -0.010052 0.305359 0.094836 -0.008638 -0.077749 0.121462 0.268297 -0.016090 0.149253 0.141816 
0.206986 -0.160888 0.180980 -0.033864 0.135162 -0.049405 0.100959 0.140520 -0.010934 -0.110962 -0.016746 0.096559 0.021284 0.050351 0.189578 -0.208758 -0.018001 0.059475 -0.078720 0.159120 0.062928 0.119765 0.014040 0.063537 0.255722 0.100643 0.037767 -0.066846 -0.149792 -0.068376 0.049908 -0.264994 0.156819 0.034585 0.015720 0.072441 0.037263 0.025755 0.022685 0.038299 -0.060172 -0.051417 -0.069871 0.203140 0.178288 -0.099146 -0.032690 0.024984 -0.094842 0.063715 -0.193041 0.148625 0.043084 -0.146297 0.001639 0.128109 0.141441 0.104463 -0.055423 -0.017752 0.048229 0.030089 0.010706 0.177499 
0.051681 0.081725 -0.175592 0.008858 0.102039 -0.124095 -0.022118 -0.095147 0.157033 0.132390 -0.062352 0.018646 0.138100 0.140014 -0.164441 0.217961 -0.051761 -0.040829 -0.042962 -0.125130 -0.089539 -0.206984 -0.033085 -0.007359 -0.106570 -0.051213 0.207837 -0.118724 0.225606 -0.087272 -0.104936 0.158326 0.050639 -0.054505 0.093725 -0.107356 0.044376 -0.042235 0.060696 -0.050112 0.058433 -0.090990 0.029832 -0.201882 -0.192216 -0.028688 0.211134 0.101022 0.058191 -0.022907 0.086150 0.250348 0.319778 0.040796 -0.039133 0.055627 0.108716 0.036271 -0.051179 -0.086399 0.161350 -0.299983 -0.022827 0.131420 
0.006920 0.067012 -0.033708 0.257875 -0.097940 -0.058257 0.051263 -0.076685 -0.316800 0.117026 -0.193880 -0.106593 -0.164206 -0.016414 -0.108444 0.174931 0.119140 -0.176382 0.064335 -0.071184 -0.095560 -0.049994 -0.072412 -0.024962 0.168382 0.047364 -0.008635 0.099195 -0.054983 0.127808 -0.094094 0.001455 0.123693 0.036602 -0.258276 -0.045160 -0.206342 0.029904 0.166487 0.124529 0.033882 0.119205 0.011138 0.014726 0.210273 0.092537 0.124074 0.136688 0.063264 0.014622 -0.133935 -0.091450 0.003345 0.153660 0.018918 0.073253 -0.122794 -0.265361 0.093521 0.024917 0.032464 0.202941 0.082885 -0.022960 
0.010303 -0.152031 0.130178 -0.199544 -0.092409 -0.113301 -0.173694 -0.033937 0.051440 0.051216 -0.086835 -0.220682 0.118956 0.095297 -0.195060 0.048094 0.128061 0.101135 0.001059 -0.068634 0.042527 -0.169996 0.139432 0.050379 -0.005182 -0.011061 0.158152 -0.116950 -0.090218 -0.054031 -0.153738 -0.005127 0.044910 -0.069621 0.026601 0.082598 -0.034042 0.043267 -0.107514 -0.175445 0.016520 -0.186171 0.031549 -0.181004 0.050414 0.042016 -0.117913 0.036425 -0.093446 -0.173923 -0.037196 -0.071306 -0.099639 0.054418 0.236979 -0.102049 -0.051619 -0.289765 -0.011631 0.124414 0.139378 0.003478 0.079631 0.093066 
0.101303 0.100981 0.023648 0.058401 -0.085739 0.005510 -0.120154 -0.047969 -0.033153 0.040624 -0.041917 0.233787 0.195608 -0.098831 -0.018776 0.008209 0.181955 -0.093128 0.202979 0.139444 0.038697 0.092578 0.076126 0.086189 0.179788 0.072462 -0.083100 -0.089637 -0.130127 0.244121 -0.091629 0.088667 -0.012847 -0.202103 -0.060753 -0.065973 0.097543 -0.129834 0.275995 -0.036250 -0.001456 0.055350 0.123590 -0.072822 -0.068555 0.103404 0.182676 -0.085210 0.098883 -0.010231 -0.112509 0.078298 0.129594 -0.166144 0.063929 0.075885 0.102624 -0.156114 0.075467 0.017279 -0.111720 -0.003244 -0.120800 0.179724 
0.015364 0.099955 -0.001117 0.063944 0.088752 -0.085513 -0.020790 -0.153426 -0.143275 0.247395 0.114885 0.028647 0.025768 0.059047 0.122280 0.245793 -0.159784 0.066518 -0.047580 0.011534 -0.070258 0.005557 0.035119 0.110128 -0.061276 0.223800 0.138146 0.224322 0.062676 0.001787 0.236176 -0.196211 0.118487 -0.097171 -0.072499 -0.123204 0.044938 0.078236 -0.062859 -0.008323 0.070076 0.110371 -0.187029 0.228608 0.123076 -0.181476 -0.207747 -0.013799 -0.077023 0.288225 -0.094338 -0.107337 -0.099719 -0.008972 -0.210622 0.032646 0.077102 -0.023685 0.170799 -0.036457 0.200525 -0.012685 0.072654 0.002769 
0.127677 0.019169 0.019123 0.059636 -0.000022 0.170584 -0.015024 0.067811 -0.080714 0.044433 -0.092750 0.059896 -0.001695 -0.011548 0.044009 -0.119697 -0.000818 -0.102909 -0.126581 -0.104382 -0.084978 -0.112712 0.172841 0.085980 -0.005343 -0.016376 0.006691 0.198765 0.005943 0.057019 -0.100256 0.026367 0.108519 0.062765 0.123963 0.059422 0.015747 0.109958 0.086775 -0.039325 -0.179799 0.109913 -0.017827 -0.066481 0.038343 0.069704 0.183922 0.102305 0.033485 -0.006619 -0.223755 0.014339 0.136058 0.096098 -0.223042 -0.129774 0.033822 -0.072148 -0.092776 -0.130254 0.163057 -0.076389 0.025142 0.121654 
-0.202536 -0.040728 0.030774 0.051285 -0.004605 0.121283 -0.172034 0.061126 0.106188 0.015511 0.025442 -0.022685 -0.188315 0.065934 -0.013578 0.050969 -0.185109 0.189837 0.113892 -0.086220 -0.051537 0.112060 0.217716 -0.073676 0.034145 -0.010590 -0.052419 -0.019514 -0.020609 0.056157 0.005000 0.050305 -0.032383 -0.146402 -0.045266 -0.004740 -0.171692 -0.036444 0.122632 -0.184467 0.175440 -0.104845 -0.081195 0.146879 0.027303 0.067467 -0.063982 0.260250 -0.130717 0.113379 -0.031337 0.057797 -0.054154 -0.052567 -0.114691 0.022869 -0.046107 0.161606 -0.037373 0.016962 -0.142458 0.083470 -0.001854 0.055016 
-0.218226 0.409075 -0.025519 0.041768 -0.090867 0.008462 0.017957 -0.087293 0.163113 0.098651 -0.163329 -0.076959 -0.200579 0.071711 -0.029405 -0.043614 0.009058 -0.146504 -0.049772 0.142786 -0.197681 -0.051163 -0.131959 -0.088255 -0.077400 -0.178678 0.168518 -0.022317 -0.093297 0.000322 0.063339 -0.164218 -0.156029 0.043028 -0.015632 0.239184 0.066899 0.141062 -0.174411 -0.180387 -0.212285 -0.017946 0.106972 0.036895 -0.160979 0.050749 0.154712 -0.142351 -0.030737 0.070484 -0.117886 -0.087483 -0.067316 -0.101082 -0.198397 -0.029910 0.161643 -0.007543 -0.247268 -0.048470 0.003331 -0.063964 0.016202 0.084562 
0.142183 -0.138052 -0.095512 0.033441 -0.015619 0.002722 0.030035 0.125041 0.013783 0.092192 -0.077986 -0.041568 0.118532 0.229950 0.011073 -0.033600 -0.024414 -0.143300 -0.028615 0.087349 -0.026837 -0.186361 -0.131335 0.146188 0.058517 -0.231342 -0.095818 0.177079 -0.024810 0.166091 -0.095544 0.066491 0.039173 -0.111267 0.074458 0.153173 -0.138991 -0.129158 0.132284 0.107333 -0.012813 -0.111469 0.017594 -0.035387 0.076076 0.062701 -0.155082 0.001730 -0.053001 -0.092284 -0.081693 0.041409 0.018887 0.071357 -0.063297 -0.185924 -0.237508 -0.095814 0.098887 -0.199154 0.052031 -0.005878 -0.136528 -0.038922 
-0.100814 0.084936 0.205365 0.139495 0.035483 -0.159371 -0.040087 -0.063499 -0.061408 0.054528 -0.091196 0.115845 0.131882 0.096131 0.060615 -0.127063 0.047712 0.125076 -0.038426 0.032629 -0.120706 -0.046353 -0.078487 -0.341771 -0.184977 -0.041843 0.007924 0.056006 0.179068 -0.011092 0.228891 0.156818 0.033439 0.002221 0.053475 0.113049 0.107054 -0.038630 -0.054690 -0.054115 -0.151835 -0.036568 0.036910 0.141685 0.091826 0.016038 0.136356 0.139894 0.161868 -0.038257 -0.155729 0.136553 0.089343 0.174092 0.043752 0.077027 -0.090594 -0.082607 0.046999 0.019059 -0.093801 -0.010796 0.060248 -0.092386 
-0.094363 -0.004088 -0.191802 -0.048794 0.117246 -0.071631 -0.068701 0.074789 -0.006602 -0.153555 0.139850 0.051532 0.000048 0.037400 0.129121 0.040102 0.004328 0.108195 0.026654 -0.002961 -0.017877 -0.043559 0.069147 -0.145785 -0.140935 0.038280 0.101706 0.045685 0.159579 0.023038 0.174450 0.051857 0.202949 0.027990 -0.054463 -0.265457 -0.041681 0.053648 0.062338 -0.009967 -0.075371 0.231395 0.011055 0.024623 -0.074680 0.081161 0.087376 -0.089632 -0.168909 -0.184411 -0.029152 -0.001735 0.002319 0.080666 0.073587 -0.000306 0.035944 -0.038470 0.017234 0.009367 0.088300 0.077936 -0.090865 -0.165033 
-0.073168 -0.274114 0.054332 0.056155 0.022990 -0.079947 0.101552 -0.046729 0.233428 0.245550 -0.151860 0.003239 -0.077185 0.105471 0.081874 -0.123460 -0.105109 -0.318641 0.022080 -0.171162 0.023722 0.234873 0.048955 0.098695 -0.023431 0.022793 -0.095483 0.031117 -0.216275 0.030184 -0.116404 0.137150 -0.207893 -0.065489 0.067351 0.146553 0.027699 -0.114258 -0.114394 0.122372 -0.170043 -0.136371 0.132641 0.063911 0.044715 -0.035937 -0.095980 -0.102309 0.047611 0.162944 -0.096143 -0.244665 -0.037249 -0.074196 -0.012198 0.024967 0.254257 0.061863 0.122539 0.096191 -0.293764 -0.172509 -0.070497 -0.145118 
-0.153442 0.121037 -0.226664 -0.090422 -0.032110 0.149748 0.170291 -0.063297 -0.068668 0.074985 0.046137 -0.312446 0.130698 0.207191 -0.099139 0.099703 0.006589 0.042098 -0.053637 0.016999 0.023453 0.024664 0.149721 0.114486 0.118329 0.151787 -0.001432 0.101916 0.071934 0.334254 -0.113186 0.002445 0.046201 -0.098186 0.121055 0.007949 0.041727 0.099070 0.019217 -0.033401 0.016230 -0.043369 -0.037495 0.051437 -0.100232 -0.047122 0.022905 0.060114 0.060168 0.058161 -0.006690 -0.210465 -0.123480 -0.114010 -0.084837 -0.042860 -0.110766 0.219701 0.023048 0.062753 -0.054885 0.061588 0.135523 0.022532 
0.019507 -0.374638 0.157336 -0.256222 -0.084580 -0.017719 0.010059 -0.072719 0.131843 0.055123 -0.018490 0.073401 -0.029998 -0.313143 0.137041 -0.015050 -0.080463 0.034360 0.057259 -0.154335 0.111403 0.041559 -0.047678 0.003830 0.157190 0.130794 -0.143529 -0.022946 -0.030970 -0.089064 0.051610 0.067631 -0.066369 -0.052635 0.099765 0.017810 -0.182022 0.015030 -0.012171 -0.093131 0.064172 0.110288 -0.051037 -0.210089 0.017436 0.060586 0.245627 0.032207 0.113294 0.209158 0.204441 -0.069614 0.012858 -0.111610 0.167004 0.050144 -0.015376 -0.021984 0.019771 0.064039 0.068524 0.121648 -0.045194 -0.089783 
0.039249 -0.102090 0.016999 -0.067862 -0.009513 -0.025230 -0.050782 -0.185768 0.035489 0.057792 -0.014848 -0.003001 0.108139 -0.113422 0.037922 0.036458 -0.092361 0.028082 -0.122076 -0.252766 0.133393 0.069782 0.125143 -0.133397 -0.002275 0.139401 -0.091136 -0.063390 -0.026498 -0.004211 0.133635 -0.111650 0.150856 0.027846 -0.059431 0.139655 0.184369 0.002558 -0.096665 0.179572 -0.055815 -0.004488 -0.012961 -0.043469 -0.027128 -0.269151 -0.094684 -0.021412 0.024972 -0.109333 -0.038144 0.025318 0.070002 0.039265 0.018366 0.060646 0.082553 -0.068762 0.123720 -0.098360 -0.030024 0.020876 0.109075 0.108198 
0.237391 -0.095443 0.006491 -0.116638 0.055819 -0.010170 0.092499 0.121731 0.054193 -0.112007 0.097291 -0.048988 0.027878 -0.017070 0.048048 0.037861 0.045322 -0.128768 0.041165 -0.071332 0.087604 -0.082156 0.285293 0.106432 0.243774 0.122879 0.005405 0.056423 0.234830 0.049538 0.020574 -0.103493 0.105500 0.000379 0.018533 -0.087909 -0.069545 0.009238 -0.136293 -0.085960 0.098604 0.069270 0.003273 -0.260727 -0.192829 0.194147 0.073288 0.092449 -0.067054 -0.144946 0.092510 0.141924 0.084954 -0.004628 -0.032945 -0.072572 0.056313 0.171935 0.070832 -0.055882 -0.011491 0.141591 0.087411 -0.050744 
0.133686 0.032499 0.027190 0.050737 0.086130 0.070023 0.123846 -0.052205 -0.048002 0.150160 0.070186 -0.143859 -0.060215 0.060386 0.090926 0.115320 -0.248054 0.045691 -0.064715 0.039382 -0.070959 0.199929 -0.082277 -0.149885 -0.080567 0.095283 0.105833 0.002929 -0.062466 0.101091 0.078939 0.127743 0.033500 -0.041763 -0.142367 0.086244 -0.123660 0.056396 0.136040 -0.094192 0.056767 -0.152969 -0.200111 -0.061431 0.142889 0.075430 0.140909 -0.028564 -0.097594 0.022031 -0.205499 -0.024988 -0.020179 -0.045140 -0.003913 -0.044289 0.062393 0.189529 0.007000 0.073806 -0.022571 0.047797 0.064871 0.037001 
-0.128393 -0.061859 0.009071 0.064153 0.128147 -0.096623 0.076002 -0.203710 0.010277 -0.117400 0.050937 0.000038 -0.070766 -0.090488 -0.117305 -0.164266 0.015209 0.034186 0.000804 -0.256012 -0.065444 -0.067173 0.062864 -0.187270 -0.005137 0.179148 -0.069812 0.065131 -0.027304 0.068678 0.105313 -0.142961 -0.069595 0.073988 -0.231426 0.072187 -0.004567 -0.137752 -0.124432 0.029927 0.133501 0.008449 -0.143886 0.144910 0.055689 -0.030103 -0.141547 0.049380 -0.072543 -0.061539 0.186951 0.028966 0.166200 -0.099657 -0.099571 0.098904 -0.068005 0.085560 -0.180665 0.034286 0.094808 -0.100650 -0.001850 0.037820 
0.148641 -0.108704 0.008325 -0.032212 -0.302171 -0.038642 -0.282022 -0.104838 0.052471 -0.154066 0.020153 -0.035011 0.044752 -0.048743 0.015924 -0.141392 -0.043394 0.028597 0.002422 -0.099531 0.179398 -0.017028 0.111656 0.011003 0.065946 0.197496 0.028963 -0.088494 0.004120 0.086887 0.044291 -0.135705 -0.012057 0.120250 -0.093581 0.003271 0.078449 -0.072252 -0.092130 0.002114 -0.069768 -0.003694 -0.224869 0.163595 0.147026 0.255107 -0.065279 0.050028 0.077404 -0.092764 0.070302 -0.042103 -0.258921 0.043231 0.089108 0.058516 -0.154194 -0.061330 0.019223 -0.034047 -0.020294 -0.049975 0.275034 -0.023494 
0.192642 0.116739 -0.018652 0.092986 -0.072074 -0.167356 0.141778 0.032166 -0.088002 -0.181683 0.076884 -0.052522 0.111649 -0.259145 0.265924 0.163739 -0.251314 0.011969 -0.067000 -0.173341 -0.069533 0.002823 -0.117170 0.261844 -0.021754 0.070582 0.095284 -0.096544 -0.142336 -0.092723 -0.050615 -0.113889 -0.047356 -0.036927 0.060659 -0.126507 0.115286 0.053443 0.123468 0.009536 -0.067577 -0.084121 0.121139 0.002948 0.112237 0.220303 -0.153135 -0.003163 -0.053168 -0.008585 0.102266 0.133661 -0.008161 -0.204558 0.203822 -0.053654 0.035600 0.006034 -0.085843 -0.053425 -0.065926 0.048406 -0.229420 0.149753 
-0.023191 -0.090679 0.130879 -0.106963 -0.122400 -0.205136 0.115070 0.033620 -0.130616 -0.078128 0.102639 0.236898 0.035773 0.112801 -0.122178 0.024625 -0.028432 -0.081550 0.031434 0.024042 0.037610 -0.119694 -0.117962 -0.146427 0.019526 -0.020729 0.145997 0.039988 -0.085294 0.094566 -0.190900 0.083042 0.035447 -0.076215 -0.024715 0.032722 0.089445 0.153649 -0.155711 -0.100477 0.142995 -0.089663 0.049891 -0.185763 0.061517 0.062410 -0.134428 -0.168208 -0.124294 -0.014003 -0.200410 0.166446 -0.065154 0.076034 0.064208 0.062329 0.206385 0.108953 0.012686 -0.108354 0.088940 0.153455 -0.074347 0.158903 
-0.001874 0.079421 -0.064790 -0.236812 0.023315 -0.038282 -0.028774 0.050001 -0.113170 -0.253623 -0.088414 0.237163 -0.081842 -0.042471 0.009584 0.074598 0.111768 -0.183471 0.131486 -0.049591 0.043299 0.020860 0.077444 -0.055169 0.079367 0.008500 0.129353 -0.007243 -0.076611 -0.038164 0.012965 -0.162039 0.106954 -0.076684 -0.190945 0.032830 0.114289 -0.041342 -0.018791 -0.077650 -0.068380 0.197314 0.094237 0.118728 0.111641 -0.140002 -0.151032 -0.023938 -0.062731 0.050321 0.133810 -0.112859 0.066598 0.080764 0.022877 0.135671 -0.130395 0.166023 -0.128926 0.184255 -0.042393 -0.123242 -0.088473 0.040905 
0.011138 0.226487 0.004681 -0.095846 -0.035405 0.109085 -0.130448 0.022694 0.033571 -0.089547 -0.056456 0.143524 0.009806 -0.080840 -0.163868 0.136318 -0.180381 0.077787 -0.010722 0.171757 -0.140280 0.046836 0.242040 0.047198 0.008188 -0.185984 -0.170198 -0.065582 0.136969 -0.074518 0.119567 -0.130771 -0.086219 -0.182084 -0.204439 -0.076481 -0.358346 0.116013 -0.148598 -0.025683 0.035103 -0.000659 -0.044371 0.249991 -0.006068 -0.146301 0.029498 -0.037380 0.121105 -0.209219 0.023207 -0.180100 -0.068568 -0.023854 -0.174921 -0.169457 0.071249 -0.150146 -0.144160 -0.090351 0.205706 0.223103 0.063394 0.059830 
0.121076 -0.005840 -0.011831 0.145966 0.147308 -0.090903 0.010164 -0.152701 -0.067326 0.016668 -0.360077 0.030069 0.090948 -0.146321 0.048252 0.122598 0.040623 -0.062681 0.037900 -0.069582 0.231164 -0.019644 0.071610 -0.249427 0.099685 -0.042353 -0.123128 0.052098 0.119154 -0.014633 0.286780 0.053132 0.191889 0.171950 -0.209820 -0.024476 -0.049965 0.010150 0.144647 0.078143 -0.249538 -0.067993 -0.030579 -0.038179 0.043149 0.008262 0.140287 -0.090038 -0.000736 0.111770 0.138586 -0.027331 -0.104902 -0.036584 -0.095979 -0.087980 -0.231854 0.294697 -0.055010 0.032871 0.047061 0.108110 0.061788 -0.032883 
0.059242 0.057912 0.028779 0.068680 -0.004820 0.085517 -0.055106 -0.165199 -0.051645 0.043780 0.113642 0.111771 0.060528 -0.282324 -0.191309 0.165588 0.136985 -0.024400 0.192255 -0.005798 0.070983 0.065266 0.189497 0.107762 0.133329 -0.061387 -0.026437 -0.081803 -0.100452 -0.044870 -0.048888 -0.036749 0.136452 -0.037292 0.009990 -0.001382 0.065693 0.052932 -0.280008 -0.012235 0.004070 -0.082188 0.195663 -0.163514 -0.110139 -0.112082 0.054427 -0.027213 -0.068047 0.011995 -0.188734 0.067908 -0.022610 -0.005755 0.190503 0.026319 -0.044796 0.091123 -0.067986 0.015269 0.000191 0.051302 -0.015564 0.218238 
0.087720 0.032600 0.077687 0.079064 -0.002459 0.041419 -0.086595 -0.100688 0.193004 0.161584 0.011164 -0.127267 0.026611 -0.102576 -0.216603 -0.088961 -0.061030 0.001741 0.087504 0.055094 0.040238 -0.063427 -0.017953 -0.124958 -0.159188 0.107407 0.060200 -0.011802 0.104533 -0.127423 -0.096775 -0.109192 -0.002400 0.108903 0.039687 0.036920 -0.061608 -0.044806 -0.066960 0.029938 -0.234719 -0.001386 -0.126546 0.344757 0.071400 -0.054532 0.107545 -0.071213 -0.032511 -0.121268 -0.001505 0.131090 0.086719 -0.137312 -0.061372 -0.105407 -0.046351 -0.011617 0.214544 -0.032055 0.198499 -0.228267 -0.000521 -0.025711 
-0.208302 -0.039487 -0.105554 -0.087979 -0.034621 0.082939 0.064526 0.107562 -0.101268 -0.042878 -0.152955 -0.118346 -0.164603 0.009673 0.184246 -0.030406 -0.091439 0.119085 0.179611 -0.137703 0.091368 -0.059899 0.064207 0.107514 0.061172 0.088650 0.120726 -0.061687 -0.108417 0.044063 -0.113528 0.047266 -0.068208 0.023002 0.083045 0.006885 -0.144996 -0.051405 -0.117915 -0.001436 0.080320 -0.038326 0.047851 0.120602 0.067060 -0.032244 0.088614 -0.093499 -0.001516 0.014371 -0.108775 -0.126668 -0.200031 -0.217792 -0.054310 0.002902 0.051102 0.033129 -0.021209 0.014013 -0.071658 0.038875 -0.082449 0.054243 
-0.095030 0.159967 0.068620 0.020445 -0.135785 0.073232 -0.132138 0.168308 0.012112 -0.004060 0.076422 0.031993 0.060556 0.181029 0.200505 0.076335 -0.114394 0.011059 -0.095395 -0.009529 0.004128 0.037865 0.051224 0.043679 0.243303 -0.028605 0.025324 -0.090712 0.085112 0.105543 -0.008923 -0.089949 -0.180348 -0.130398 0.001870 0.137812 -0.118910 -0.264192 0.043264 -0.094589 -0.107889 0.004813 0.063887 0.004547 0.004434 -0.083676 0.021057 0.025694 -0.132254 0.002486 0.102546 -0.073243 0.053688 0.104676 0.111649 -0.058371 0.047394 0.050723 -0.080635 -0.152940 -0.058483 0.090634 -0.018850 -0.115886 
0.079813 -0.022474 0.050895 -0.254750 0.046989 -0.083310 -0.224222 -0.163555 0.164580 0.077868 0.088631 -0.166704 -0.130448 -0.071092 -0.079848 -0.096256 -0.038013 0.030940 -0.027346 -0.079696 -0.039820 0.284460 0.005803 0.040626 -0.026425 0.255457 -0.139549 -0.106236 0.062487 -0.175617 -0.125448 -0.060481 -0.049228 0.014725 -0.176773 0.049671 0.002832 0.201190 0.008684 -0.038919 -0.074412 -0.048730 0.043051 -0.054283 0.056579 0.048180 -0.015772 -0.051749 -0.158455 -0.049203 -0.022219 0.107082 0.027402 -0.125385 -0.046386 -0.054563 0.088565 -0.007275 0.049251 -0.079681 -0.011292 0.000209 0.146914 -0.124788 
-0.056185 -0.272054 -0.032528 -0.027622 -0.136543 0.108966 0.004732 -0.103840 -0.171898 0.046652 -0.138219 -0.162008 -0.011517 -0.192153 -0.057591 -0.009556 0.021413 0.057220 0.039593 0.087801 0.000391 -0.150136 0.007553 0.164996 0.124731 0.018622 -0.013677 -0.116667 -0.355164 0.070025 -0.110867 0.254537 -0.003955 -0.012181 0.048216 -0.083528 -0.050514 0.012646 -0.110142 0.042802 0.106566 0.001999 0.195348 0.107073 -0.104104 -0.010862 0.052072 -0.067111 -0.055000 -0.057176 0.057454 -0.161332 -0.069318 -0.005791 0.027580 -0.027284 0.034103 0.284164 -0.357929 -0.170182 0.018171 0.120036 0.219394 0.116333 
0.091184 -0.078755 0.084660 0.060921 0.156676 -0.109681 -0.071143 0.112003 -0.137749 0.066458 -0.018509 0.074268 0.124024 -0.056356 0.130413 0.087355 0.170198 0.065527 0.097648 0.228517 0.000555 0.145293 0.123839 -0.002220 0.072359 -0.018568 0.008121 0.017556 -0.058811 0.177851 -0.059991 0.014659 0.121816 0.006251 0.248782 0.183905 -0.104952 0.171037 0.069889 -0.004584 -0.162531 -0.024328 -0.147643 0.051421 -0.038780 0.077322 0.147687 0.083071 -0.200847 0.145855 -0.050000 0.209558 0.000906 -0.047691 -0.153159 -0.034834 0.050366 -0.120114 0.009607 -0.117863 0.017524 0.101591 0.052755 0.082829 
0.049513 0.152490 -0.020372 0.166866 0.129723 0.068554 -0.115251 -0.123914 0.097477 -0.007722 -0.104627 0.162294 -0.194244 0.035201 -0.069156 0.008981 0.115579 -0.260465 0.105460 0.054394 -0.222826 -0.071448 -0.062644 -0.221696 0.218454 0.014757 -0.098537 -0.035077 0.020975 0.001464 -0.044601 0.230647 0.059627 0.077120 -0.098638 -0.011062 -0.005091 0.019571 0.272186 0.080096 -0.268829 -0.041324 0.017298 -0.057127 0.062081 0.029176 0.114091 -0.117605 -0.128016 -0.126497 -0.019246 0.019528 0.032150 0.025689 0.064505 0.123318 -0.055465 -0.048213 -0.234317 -0.091922 0.155632 0.062501 0.155087 0.050929 
-0.062670 -0.103994 -0.216153 -0.054200 0.174511 0.121377 0.038430 -0.021095 -0.103425 -0.037714 -0.031147 0.064873 0.036566 -0.121443 -0.055678 0.041659 -0.331991 0.079518 0.021760 0.077281 0.072877 -0.085901 0.031392 0.286872 -0.045466 -0.112712 -0.093525 0.115371 -0.061301 0.030696 -0.277386 0.041947 -0.297465 0.203190 -0.123228 0.145477 -0.076620 -0.046059 0.073266 0.148463 -0.026295 0.120876 0.261150 0.009898 -0.089538 -0.003749 0.241074 0.060460 0.139599 0.108419 0.030404 0.021711 0.015834 0.108873 0.080333 0.115812 -0.106563 -0.136716 0.116579 -0.004098 0.106607 -0.305079 0.025251 -0.030387 
-0.003637 -0.182858 0.032137 -0.125176 0.063412 -0.109101 -0.000203 -0.107492 -0.060611 0.135686 0.097755 0.131134 0.022408 0.027205 -0.029421 -0.005423 0.045983 0.188361 -0.080397 0.072892 0.024528 -0.083458 0.003307 -0.017642 -0.012766 -0.202513 0.002150 -0.031782 -0.149012 -0.111069 0.017494 0.254320 0.030915 -0.055925 -0.024006 -0.052144 -0.053549 0.107079 -0.049682 -0.174430 0.014722 0.201233 0.121288 0.109049 -0.126890 0.025457 -0.006603 0.191352 -0.038847 -0.057250 -0.021620 0.019589 0.126090 -0.001289 0.041581 0.098624 -0.273818 -0.226081 -0.118881 0.106449 -0.066194 -0.220193 -0.029522 -0.028594 
0.029827 -0.089603 -0.056863 0.090877 0.050126 -0.028699 0.038383 0.142018 -0.114928 0.134535 0.009690 0.020469 0.153439 0.063593 -0.046314 0.117175 0.033214 -0.026761 0.081481 -0.116361 0.100340 0.071666 0.006308 -0.004304 -0.071570 0.025682 -0.131776 -0.036144 0.068021 0.043317 -0.082777 -0.070142 -0.053691 0.019592 0.019499 -0.044588 -0.032384 0.122791 -0.044340 -0.053765 -0.068461 0.098122 0.221225 -0.007217 -0.009082 -0.097754 -0.230703 -0.041321 0.066925 0.067954 -0.052773 0.062904 -0.033530 0.042599 -0.030234 0.097139 0.184266 -0.220385 0.226309 0.175525 0.006188 -0.059007 0.024107 0.174971 
0.126672 0.151865 -0.063150 0.197646 0.221804 0.035630 -0.072513 0.220074 0.117503 -0.126979 -0.015039 -0.154126 -0.166760 -0.145398 -0.063184 0.088408 -0.071141 -0.114127 -0.050544 0.098989 0.177618 0.337687 0.133548 0.003490 0.099779 0.084626 -0.096873 0.021702 0.316880 0.106170 -0.098259 -0.004113 -0.018359 -0.033987 0.073052 0.123442 -0.050029 -0.012581 0.011301 0.107188 0.014739 -0.392494 0.018026 -0.123385 -0.067566 -0.132987 -0.228739 0.081722 -0.067509 -0.084850 -0.023434 0.041675 -0.041714 -0.117025 -0.224594 0.182038 0.006863 -0.064332 0.277530 0.017467 -0.124849 -0.172299 0.058818 -0.069770 
-0.060640 0.010618 -0.106915 -0.025528 -0.048267 0.069955 0.003490 -0.022973 -0.108214 -0.088560 0.117757 0.217110 -0.130810 -0.054331 0.111245 0.026105 0.125906 0.095863 -0.060589 -0.142387 0.029851 0.093859 -0.122640 -0.057380 0.158861 0.025020 0.030591 -0.062307 -0.066730 0.084438 -0.040838 0.030447 -0.065998 -0.057304 -0.019925 -0.010058 -0.125307 0.029069 -0.051727 -0.151903 -0.000773 0.083539 0.148289 0.012488 -0.067872 0.053357 -0.216745 0.042238 -0.187878 -0.169220 0.001073 -0.033148 0.010593 0.236981 -0.125228 -0.018973 -0.023380 0.050809 -0.074608 0.013700 -0.070810 0.149134 0.033176 -0.040724 
0.152714 0.048962 -0.201878 0.136455 -0.074363 -0.005693 -0.223635 0.005060 0.201998 0.067830 -0.148870 0.043502 0.098048 0.165530 -0.001356 -0.042586 0.024021 0.088511 0.075192 -0.066230 0.040733 -0.076647 0.053607 -0.046551 0.091538 0.161509 -0.048308 -0.142975 -0.100431 -0.088772 0.090256 0.028841 0.015290 0.064150 -0.216101 -0.063862 -0.155716 -0.209161 -0.185837 0.068415 0.132544 0.280949 -0.103342 0.040262 -0.059143 0.125045 0.105915 0.091910 -0.104787 -0.241190 -0.005771 0.113318 -0.050666 -0.076671 -0.083033 0.017511 -0.077600 -0.013962 0.087146 -0.112393 0.099314 0.105729 0.043033 0.002814 
0.127047 0.017579 0.050417 0.043153 0.218225 0.130092 -0.129397 0.232276 -0.048935 -0.095137 0.013081 -0.022619 -0.042867 0.136697 -0.030205 -0.121609 0.206112 0.020310 0.003295 0.097447 0.033519 0.029394 0.119118 0.062721 -0.177187 -0.098097 -0.076128 0.027359 -0.034176 0.040592 0.043675 0.062476 -0.189730 0.019647 -0.052486 0.031021 -0.179681 -0.357247 0.013550 -0.077333 -0.068758 0.168120 -0.026429 0.029559 -0.016612 0.026797 0.006868 -0.380091 0.120251 -0.058528 0.146743 -0.064766 -0.123374 0.163430 0.135696 -0.126725 -0.074699 0.124012 0.279832 0.050345 0.085648 0.042159 0.100056 0.129195 
W1
0.010815 0.009188 0.012129 -0.016867 0.047323 -0.050740 0.001121 0.035135 -0.047250 -0.062434 0.016720 0.044634 -0.102019 -0.001834 -0.054382 -0.006761 0.062496 0.022165 -0.017372 0.006942 0.039835 -0.025814 0.029359 -0.002556 0.059531 0.020503 -0.063475 -0.000331 0.013628 -0.010520 -0.037876 -0.013772 0.021838 -0.020271 -0.044908 0.026262 -0.042419 0.037420 -0.011444 0.056018 0.031401 -0.027052 -0.011572 -0.033569 -0.021973 0.023884 -0.065920 0.038303 -0.038710 0.014701 -0.002045 -0.041855 0.003437 -0.053028 0.023936 -0.047467 -0.002475 -0.017810 -0.002510 -0.093507 0.050010 -0.033575 0.004905 0.041694 0.013352 0.011962 -0.047644 -0.085328 -0.056216 -0.098707 -0.058935 -0.009316 0.012102 0.009278 0.045331 0.012023 0.028030 0.021838 0.074981 0.074672 -0.073587 -0.003650 0.011804 -0.016710 -0.025553 0.015758 -0.008542 -0.027802 0.046871 0.049233 0.009858 0.004127 0.009222 0.009194 0.034225 -0.065330 0.029713 -0.082129 -0.021168 0.001131 -0.024699 -0.087470 -0.000041 0.034748 0.011793 -0.003267 -0.030716 -0.085632 0.031877 0.032593 0.038224 0.021290 -0.032640 -0.059907 0.004108 -0.034526 0.007528 0.043795 -0.056102 -0.080012 0.040919 0.018269 -0.029692 0.026296 0.023082 0.048072 -0.008304 -0.015937 0.022191 -0.035656 0.055070 0.064040 -0.002227 -0.004077 -0.009076 -0.018399 -0.019019 -0.047042 0.058531 0.035288 0.033975 0.017685 -0.070075 0.021180 0.044679 0.006252 0.025747 -0.020980 0.038425 0.040017 -0.034244 -0.043224 0.077044 -0.092813 0.013939 0.018530 -0.031779 0.035586 0.017573 -0.010960 0.014371 0.041801 0.023752 0.060444 -0.045715 -0.004447 -0.004740 0.063159 -0.029201 -0.040745 0.087256 -0.007492 0.053049 -0.012866 -0.085111 0.019407 0.067518 0.003098 -0.063075 -0.074376 0.118303 0.094098 -0.043555 0.045249 -0.031019 0.030390 0.012906 0.046531 0.056533 -0.058688 0.042523 0.035149 -0.005935 0.014957 0.016206 0.048875 -0.023800 0.010033 0.019276 -0.007137 -0.036134 0.032105 0.043635 0.059135 -0.074132 -0.015375 0.031377 -0.035813 -0.057035 -0.024828 0.047129 -0.036629 0.022301 -0.036441 -0.079850 -0.000943 -0.022859 -0.021917 0.053377 -0.059387 -0.047168 0.025884 0.040173 0.042791 -0.016618 0.063097 -0.037330 0.056087 -0.007750 0.008344 -0.078315 0.049327 -0.010176 -0.040065 0.022847 -0.000123 0.004487 0.028186 0.015198 -0.035623 0.037404 0.041360 -0.037219 0.066265 -0.012325 -0.033496 0.024355 0.029558 0.039280 0.041525 -0.019693 -0.014250 0.006323 0.043244 0.001632 -0.060321 0.007569 0.040732 0.025892 0.002866 -0.017249 -0.002541 0.020407 -0.021058 -0.081931 0.059099 0.021383 -0.056058 -0.065580 0.003239 0.022815 0.033675 -0.018115 0.090690 0.073032 -0.008930 0.005835 -0.028919 -0.028184 0.000403 -0.035111 -0.064673 -0.050351 -0.007344 -0.013103 0.002805 -0.018618 0.071121 -0.067286 0.055094 0.046917 0.008236 -0.018778 -0.009644 0.042961 -0.014284 0.007901 0.018987 0.063179 0.022022 -0.022124 0.038510 -0.051476 -0.048244 0.001972 -0.031594 -0.054974 -0.003703 -0.034237 0.003141 0.036459 0.020655 -0.015954 0.016314 -0.044122 0.014503 -0.045907 -0.050747 -0.068198 0.008009 -0.003429 0.035495 0.029345 -0.012227 -0.004691 0.043229 0.020591 0.009788 -0.051912 0.011733 -0.003543 0.076344 -0.012067 0.008126 0.060011 0.029487 0.057279 0.032937 0.065603 -0.031949 0.018498 -0.044214 -0.010379 -0.040760 -0.001976 -0.004889 -0.045753 -0.034822 0.072993 0.014077 0.036486 -0.066150 0.002378 -0.012293 0.040349 -0.000870 -0.024606 -0.009573 0.019209 -0.025706 -0.051119 0.036933 0.007674 0.059010 0.057233 -0.074213 0.003641 -0.073211 0.002397 -0.021579 -0.005623 -0.006636 -0.034295 0.031483 -0.032286 0.021252 -0.010077 0.003679 -0.014043 0.000799 0.056953 -0.040896 -0.064226 -0.017652 0.027501 0.007529 0.020737 0.006902 -0.006391 0.002340 0.016559 -0.062678 0.024861 -0.042551 0.023231 0.044487 -0.041531 -0.048006 -0.068151 -0.026070 -0.018369 0.042645 -0.048352 0.031382 -0.005298 -0.071740 -0.046617 -0.035854 -0.026132 0.020158 -0.010666 0.011511 -0.044540 -0.068569 0.070012 -0.010161 -0.032894 -0.002223 -0.011003 -0.025997 -0.087413 -0.036917 0.002966 -0.021635 -0.012675 0.016055 0.055775 0.005358 0.026748 0.032510 0.046243 0.046396 0.028117 -0.068061 -0.046488 -0.039717 -0.012804 0.058000 -0.011605 0.024594 -0.056810 0.035017 0.033741 0.036727 0.050914 -0.018812 -0.091459 -0.029818 -0.039071 0.066640 -0.102893 0.035125 0.015309 -0.016130 -0.030615 0.019116 0.092216 -0.002338 -0.071523 -0.024994 -0.048830 -0.025674 0.001498 -0.075602 -0.024313 0.036756 0.000150 0.016362 0.027139 0.054194 0.049595 -0.069107 0.028092 0.005794 -0.019482 -0.027051 -0.018928 0.018820 0.043987 -0.028051 0.040499 -0.071271 0.042964 -0.039360 0.003312 -0.014710 0.016738 0.028425 -0.009575 0.107666 -0.061778 -0.069526 0.019774 -0.010867 0.041301 -0.005155 0.053964 -0.062132 -0.109813 0.070866 0.053631 0.002492 0.027171 0.071176 0.012618 0.018892 0.028017 -0.039263 0.019454 -0.033771 -0.042127 -0.056697 -0.059014 -0.012160 -0.008149 -0.038914 -0.060014 0.017490 -0.001083 -0.027895 0.015513 -0.046620 0.096686 -0.057264 0.006017 -0.023808 0.085656 -0.059799 -0.049450 -0.031252 0.018752 0.001267 -0.025639 0.054383 -0.096277 0.069931 -0.024243 -0.039603 -0.023745 0.016689 -0.013843 -0.049193 -0.009804 0.010092 -0.071545 0.047160 -0.011546 0.065385 -0.020506 -0.008144 0.041668 -0.013275 -0.006576 -0.070160 0.008944 -0.027083 0.020675 -0.018996 0.011658 0.002363 -0.012760 0.025807 0.045312 0.010509 -0.006473 0.015629 -0.020192 -0.010978 0.010383 0.011996 -0.004698 0.051894 0.042934 0.005134 0.013118 0.001863 0.001321 0.097616 0.025412 -0.065067 0.035522 -0.067464 0.023977 -0.075694 -0.035723 -0.041332 -0.065070 -0.014477 0.057158 0.010914 0.081595 -0.058830 -0.022113 -0.039113 0.039071 0.015238 0.009415 -0.053871 -0.132919 -0.045146 -0.069875 0.047529 0.014419 0.024192 0.002274 0.053856 -0.036193 -0.040655 0.023153 0.023230 -0.006845 0.008596 -0.008120 0.030365 -0.022418 0.036882 0.013199 -0.138168 0.017792 -0.034758 0.020268 -0.013858 -0.005481 0.024545 -0.027761 -0.011077 0.042405 0.044733 0.053330 -0.011634 -0.036623 -0.040285 0.013936 0.013605 -0.104551 -0.046425 -0.056303 -0.009271 -0.057729 0.021423 0.095754 -0.001930 -0.067486 -0.041746 0.033961 0.007656 0.016095 -0.002640 0.032139 -0.040927 0.029962 0.089829 0.053049 0.003739 -0.044016 -0.011020 -0.009234 -0.002788 0.020413 -0.058175 -0.034841 0.040801 -0.011482 0.039719 0.000240 -0.053427 -0.083609 -0.033053 -0.017900 0.047308 -0.001507 -0.020545 -0.002958 0.072765 -0.018030 -0.004785 0.021506 -0.046416 0.006461 -0.024440 -0.017817 0.028640 0.039205 0.000607 0.037055 0.023459 -0.038473 -0.053965 -0.057971 0.005072 0.009108 -0.019192 -0.036037 0.083018 -0.028142 -0.027969 0.096616 -0.011139 -0.020331 0.101627 0.033596 0.108747 -0.029282 0.032367 0.029745 -0.045876 -0.063435 -0.061539 -0.054165 -0.011923 -0.029653 0.017664 0.034476 -0.058496 0.042519 0.057904 -0.090720 -0.090205 -0.029680 -0.052805 -0.044343 0.010709 -0.078678 -0.051830 0.008612 -0.037592 -0.012259 0.001282 -0.079819 -0.089038 -0.037045 -0.006716 -0.018415 -0.029934 -0.003271 -0.048208 -0.063398 -0.046738 -0.061438 0.029170 0.032795 0.020562 0.059723 -0.011865 -0.011868 -0.020780 0.015809 0.070110 -0.028174 0.007385 0.083597 -0.049559 0.028820 -0.025382 -0.037946 0.052332 0.046605 -0.013089 -0.077484 0.011342 -0.026289 -0.056097 -0.009110 -0.032285 -0.008853 0.041718 0.041333 -0.000456 0.024288 0.019285 -0.023706 0.009181 0.017860 0.017522 0.010577 0.018072 0.051253 -0.059372 -0.004166 0.100129 -0.110349 -0.007119 -0.002457 0.094570 -0.013118 0.048347 -0.018866 -0.049152 0.005118 -0.024756 0.003664 -0.079765 -0.061560 -0.016745 0.079732 0.016768 -0.049653 -0.000345 -0.020733 0.004943 0.020951 0.017142 -0.008138 0.025392 0.009914 0.049244 -0.034992 -0.034737 -0.074597 0.000326 -0.056951 0.008252 0.080109 0.048340 -0.012763 -0.070819 -0.061912 0.024111 -0.047141 0.000628 -0.049588 -0.048409 -0.025599 -0.016693 0.086493 -0.046677 0.047218 -0.044099 -0.000745 -0.038950 0.051339 -0.010998 0.044652 -0.039168 0.024165 -0.000236 0.030240 0.004420 0.021481 0.090513 -0.022907 -0.034358 -0.041780 -0.003696 -0.046090 -0.016511 -0.004633 0.018651 0.013704 -0.041822 -0.010171 -0.022346 -0.004764 -0.042060 -0.035183 -0.066421 -0.004225 -0.027236 0.027340 -0.016154 0.006219 0.010151 -0.028036 -0.021153 0.006258 -0.014140 0.009154 0.032942 -0.039535 0.025977 0.017689 0.012237 -0.045939 0.005573 0.017133 -0.024235 -0.002270 -0.045314 -0.003295 -0.024166 0.009746 0.008745 0.043507 0.050916 0.058091 0.036653 0.019026 -0.005169 -0.004687 -0.087778 -0.047103 -0.068130 0.014537 -0.007933 0.012677 -0.063864 0.046009 0.020822 0.004563 -0.036103 -0.086596 0.043700 -0.062140 -0.049099 -0.015187 0.027976 -0.030679 -0.039473 -0.061786 -0.058723 0.001365 0.004152 0.016272 0.000474 0.000822 0.041185 0.032705 0.008744 0.010358 0.000167 0.027175 -0.012422 0.058287 -0.030314 0.029640 0.016938 0.074720 -0.014920 0.033539 -0.021136 0.007990 0.024889 -0.018860 0.010464 -0.016767 -0.091201 -0.057553 -0.012876 -0.042532 -0.010252 0.029900 -0.067551 0.029513 0.004128 -0.074287 -0.024907 0.012735 0.055531 0.017567 0.003617 0.038115 0.068134 0.045198 0.013487 0.050242 0.038613 -0.004452 0.009963 -0.006379 0.110261 -0.019092 -0.013159 -0.030669 -0.025807 0.009098 -0.044437 -0.023629 -0.048310 0.028211 0.041347 0.083527 -0.000840 -0.013343 -0.004307 -0.039994 -0.025754 0.001502 -0.060087 0.020595 -0.084786 -0.017692 -0.002750 -0.006125 -0.084768 -0.006509 -0.034382 -0.029943 -0.020027 -0.015166 -0.064706 0.016442 0.032489 -0.013929 0.012801 -0.059254 -0.002834 -0.004883 0.004261 0.073934 -0.056299 0.023731 -0.054561 0.051587 -0.026085 -0.058750 0.005027 0.015288 0.118735 -0.074688 -0.071192 0.021071 0.004531 -0.003405 0.012182 0.023901 -0.017071 -0.008954 -0.059942 -0.045091 0.028122 -0.093065 -0.004111 0.032334 -0.029683 
0.045539 -0.014196 -0.041036 0.017363 0.032685 -0.006987 0.021251 0.004566 -0.023527 0.066916 0.021377 0.018453 0.042080 0.034807 -0.074368 0.007781 -0.029747 -0.072848 -0.102284 -0.061827 0.057181 0.020381 -0.006050 -0.001389 -0.021537 0.057460 0.030459 0.020946 -0.071252 -0.020304 -0.020745 -0.077147 -0.035824 -0.057316 -0.016276 0.058200 0.039044 0.050035 -0.006773 -0.048901 -0.022128 0.037691 -0.014764 0.026448 -0.009317 0.044692 -0.005639 -0.050178 -0.090118 0.069547 -0.015325 0.073133 -0.053622 0.001943 -0.027250 0.019616 0.034638 0.058927 0.058701 0.065209 -0.016997 -0.141382 -0.054032 -0.095101 -0.008008 -0.008052 -0.038601 0.016597 0.019601 -0.041476 0.035392 0.034124 0.010696 0.084254 -0.020938 -0.000723 0.097530 -0.027196 0.025728 -0.017036 -0.029897 0.034958 0.026212 -0.010806 -0.031639 -0.013308 0.068938 0.033064 0.019837 -0.108196 0.059147 0.000976 -0.077831 -0.014881 -0.063459 -0.092000 0.005952 -0.033408 0.076948 0.019374 -0.056290 -0.017652 -0.029640 -0.024990 -0.043048 -0.007537 -0.036062 0.009780 -0.001351 -0.016546 -0.047174 0.031055 0.022144 0.037389 0.002613 0.002246 0.022584 0.006950 -0.008705 -0.011651 -0.013708 -0.002838 0.019905 0.040314 0.045425 -0.019909 0.036398 -0.033862 -0.093115 0.044123 0.025269 0.064916 0.009047 0.008419 0.035333 0.041600 0.071874 0.026645 0.019600 -0.008799 0.033625 0.064554 0.085075 0.031038 0.053644 0.013983 -0.015987 0.018499 0.040312 -0.011645 -0.002667 0.010587 -0.018193 0.011596 0.002678 0.041649 -0.043430 -0.094343 -0.039409 0.035931 0.020686 -0.031807 -0.064002 -0.032519 0.030339 -0.030604 0.002238 -0.023163 0.017696 0.005854 -0.023778 -0.003492 0.065365 0.057502 0.044073 0.007629 -0.025609 0.031878 0.028944 0.025675 0.067292 0.041118 -0.047877 0.022967 0.053434 0.003301 0.014469 0.050405 0.001872 -0.010190 0.002651 -0.047519 -0.015786 -0.049761 0.022133 0.005917 0.066630 -0.023776 -0.067467 -0.000628 -0.048140 0.010528 0.061332 0.047656 0.021251 -0.051920 0.021156 0.000923 -0.065348 0.008141 0.025932 0.030597 -0.086945 -0.034737 0.016810 -0.086721 -0.038523 0.019294 0.027373 -0.009488 -0.005269 0.012189 0.042212 0.013391 0.038809 0.044661 0.002491 0.018595 0.005152 -0.055440 -0.078531 -0.010855 -0.090290 -0.002514 -0.056519 -0.063388 0.014587 -0.051545 -0.003332 -0.056981 -0.012797 0.003156 -0.009148 -0.046240 -0.019244 -0.004272 -0.024931 -0.004756 0.055118 -0.090069 0.026545 -0.014173 -0.023174 -0.005326 0.013935 0.036616 0.045662 -0.056726 -0.059713 0.026913 -0.077447 -0.015878 0.069630 -0.045063 -0.016854 -0.003823 0.015327 0.047199 0.021934 0.034661 0.005059 -0.092270 -0.014672 -0.012818 -0.020837 0.050164 0.059443 -0.076806 0.001832 0.004263 0.049333 0.077309 -0.055989 -0.000253 -0.028827 0.002617 0.057771 -0.055349 0.022444 0.031120 0.024523 0.020837 0.015241 0.025531 -0.025837 0.016968 -0.007219 0.046420 -0.058198 0.033504 -0.021202 -0.004684 0.022274 0.012478 -0.058311 0.006447 -0.021143 -0.061024 0.007108 -0.061371 0.057645 0.021615 0.039219 0.031891 -0.033078 -0.064695 0.018848 -0.035920 -0.044838 -0.072716 0.028752 -0.007357 0.033517 -0.035363 0.032147 0.104884 0.008776 -0.021339 -0.016792 -0.028489 -0.007971 0.025436 -0.029197 -0.064225 -0.037734 -0.116407 -0.011620 -0.005805 -0.036459 -0.026780 0.015609 -0.004909 -0.012693 -0.031081 0.004468 0.023350 -0.035130 0.017392 0.022666 -0.036345 -0.008868 0.005362 -0.012537 0.046431 0.032306 -0.047947 0.007246 -0.023246 -0.067184 0.075047 0.017875 -0.115068 0.020608 0.013900 -0.013254 -0.035762 -0.045529 -0.040203 0.050627 -0.042514 0.061297 -0.000631 0.007391 0.010455 0.037772 -0.017027 -0.016776 0.024302 -0.081465 0.067598 0.028084 0.036255 0.024624 0.057338 0.071607 -0.043795 -0.036741 0.032270 -0.036076 0.055349 -0.052526 0.014269 0.006512 0.065872 -0.033441 -0.003051 -0.045166 0.006081 -0.008393 0.044437 0.026974 -0.012963 0.034457 0.012236 0.033577 0.031808 -0.008369 -0.014634 -0.006691 -0.057701 -0.007658 0.055224 -0.025815 -0.078014 -0.055833 0.020548 -0.052167 0.017475 0.000368 -0.002386 -0.029170 -0.029072 0.109885 0.017003 0.013898 0.041592 -0.038384 0.005523 0.066825 0.025978 0.055628 -0.013937 -0.048174 0.004952 0.000770 0.029137 -0.007475 -0.040877 -0.065991 0.040360 0.028835 0.020320 -0.023542 0.009334 0.048288 -0.008145 0.017215 -0.036620 -0.043051 0.046234 0.005541 0.009575 -0.044371 0.002517 -0.010259 -0.037436 -0.053060 0.014310 0.069051 -0.007513 0.019088 -0.037344 -0.028355 0.009457 -0.029778 -0.076091 0.031431 -0.003898 -0.024450 -0.008234 -0.010257 0.026676 -0.043462 -0.054243 -0.003614 0.095009 -0.036682 0.024570 -0.004361 -0.014302 0.070179 0.018958 -0.006196 -0.051363 -0.010401 -0.035653 -0.103300 -0.002508 0.010586 0.039045 -0.043743 0.023478 0.121816 -0.007559 0.041396 0.047129 0.055611 0.020557 0.021825 -0.045994 0.046513 -0.026046 -0.029204 0.000994 -0.067107 0.016459 -0.073322 0.049942 -0.069646 0.018904 0.042277 -0.025243 -0.054394 0.022678 0.025176 0.000181 0.069627 -0.018704 -0.055093 -0.017113 0.011077 0.027961 0.011319 0.046662 0.019100 -0.007720 -0.016405 0.012904 -0.100390 0.003156 0.002399 0.043301 0.022522 0.001307 -0.049941 0.034884 0.033169 0.072652 0.040753 0.016348 -0.006289 0.049158 0.004204 0.100773 0.028214 -0.019196 0.069246 -0.059518 0.001276 0.058808 -0.040800 -0.029562 -0.013401 0.019989 -0.014904 -0.073364 -0.063298 -0.034173 -0.020941 -0.048261 -0.022194 -0.062373 -0.029341 0.068109 -0.087354 0.019299 -0.037121 0.019065 -0.015021 0.055971 -0.039222 -0.013235 0.016376 -0.036998 -0.065054 -0.027206 -0.014202 0.059885 -0.036166 -0.014576 0.010636 -0.011360 0.024404 0.007592 -0.040383 0.053609 0.011123 0.028340 -0.012486 0.028897 0.049145 0.020868 0.042057 0.005793 0.031513 0.033644 -0.067086 0.042978 -0.026686 0.054499 -0.063827 0.002703 -0.045297 0.016480 -0.052468 0.028202 0.018393 -0.041097 0.061645 0.043412 0.094628 -0.007888 0.009067 0.040664 -0.006001 0.016045 -0.031839 0.043712 -0.025354 0.048347 -0.026867 -0.032630 0.014684 0.005119 0.061322 0.012778 -0.003544 -0.041713 0.014937 -0.056485 0.090831 0.023175 0.056250 -0.000901 -0.008956 -0.023111 0.002585 0.036181 0.013236 -0.092566 -0.033557 -0.031395 -0.006870 0.035158 -0.034429 0.019134 0.024788 -0.037743 0.075779 -0.003000 0.056060 0.012661 0.027244 -0.055907 0.021733 -0.008317 0.022526 -0.004630 0.062647 0.018239 0.067346 -0.058652 -0.050735 -0.080382 0.044739 -0.068450 -0.060606 -0.027357 0.039245 0.076164 -0.057766 -0.050088 0.054893 -0.004513 -0.103545 0.020357 0.030639 -0.000539 0.026105 -0.066598 -0.012929 0.042403 0.005180 -0.029302 0.022584 0.037831 -0.020327 -0.046020 -0.019383 0.018630 0.011168 0.011538 -0.051892 -0.001117 0.016142 -0.020817 0.043490 -0.038280 -0.002507 0.001209 -0.066608 -0.037289 0.051505 0.020669 -0.039716 -0.009243 0.012403 0.022270 -0.050952 0.090356 0.032955 -0.023664 0.012551 0.016924 0.058685 -0.032386 -0.048070 -0.018679 0.008120 0.053144 0.022964 0.033083 0.113185 -0.007511 0.048615 0.033572 0.061437 0.053452 -0.018675 0.018882 -0.050538 -0.046845 -0.091090 -0.121037 -0.071282 -0.042722 0.043150 -0.030671 -0.012074 -0.032278 -0.030944 0.006093 0.047649 0.011090 -0.038884 -0.073416 -0.024521 -0.019484 0.077582 0.008978 -0.044054 0.026088 -0.041265 -0.008506 0.048201 0.005409 0.057176 0.010278 -0.003408 0.002059 0.004232 0.005382 0.010447 0.047371 -0.006603 -0.083107 0.019111 0.022073 -0.029300 -0.003936 0.081189 -0.112078 -0.084133 0.063716 -0.004594 0.023499 0.051653 -0.082210 -0.025501 0.012193 -0.022540 -0.049633 0.036929 -0.027530 0.000913 -0.008153 0.038279 -0.021766 0.041841 -0.008644 -0.018379 0.071407 0.028684 -0.069689 -0.034366 -0.066119 -0.095626 -0.063411 0.052328 -0.014034 0.001959 -0.022894 -0.018208 0.021966 -0.011709 0.021611 -0.086143 -0.025102 -0.027917 0.052183 -0.016316 0.040659 0.013931 -0.060472 -0.012606 0.075411 0.090536 -0.031908 0.003273 -0.031133 0.045942 -0.038989 -0.025345 0.031877 -0.117100 0.012916 -0.092494 0.010516 -0.021192 0.038160 -0.016649 -0.006399 -0.015786 0.012664 0.046709 0.033267 0.000811 -0.020175 0.017788 0.074302 0.039662 -0.021250 0.015573 0.037746 -0.004058 -0.004952 0.012968 -0.053525 0.000818 0.028361 -0.024586 0.008079 -0.009781 -0.090085 -0.003931 0.037811 -0.034804 0.035541 -0.003701 -0.025029 -0.009323 -0.105232 -0.059024 -0.003704 0.016642 0.037146 -0.014493 0.010876 0.029463 0.052033 0.028010 -0.074337 0.047246 -0.019310 -0.013626 -0.031036 -0.074168 -0.063943 0.076134 -0.038455 0.005665 0.063004 0.048407 0.022409 0.007981 0.107241 -0.000439 0.033486 0.087132 0.013003 0.027184 0.004277 0.027497 0.050681 0.000027 0.053360 -0.106671 -0.016665 0.008229 -0.036747 -0.010684 0.059349 0.013330 0.077179 -0.020957 -0.056348 0.038264 -0.041212 -0.022824 0.040730 -0.023102 0.020029 -0.015581 -0.041327 0.045154 -0.022365 0.042158 0.007462 -0.013651 0.031681 -0.000300 -0.036499 0.051091 0.119924 0.002693 0.002682 -0.030947 -0.097495 -0.071345 -0.012806 -0.037120 0.034161 -0.018085 -0.036400 0.015483 0.005694 0.054493 -0.039831 -0.022435 -0.000136 -0.033623 -0.015860 -0.073090 -0.025205 -0.031470 -0.072679 0.051394 0.060532 0.015153 0.005715 -0.026134 0.002034 -0.051362 0.043372 0.022132 -0.058492 0.019247 0.025805 -0.053676 -0.054397 -0.058602 -0.020084 0.049633 0.031418 -0.074982 -0.076938 0.013479 0.035479 0.006903 -0.034133 -0.015246 -0.026078 -0.052059 0.031404 0.034494 -0.049178 0.068185 -0.021221 -0.006481 0.005315 0.034758 0.015761 0.005222 -0.064742 -0.016919 0.005848 -0.052105 -0.031146 0.047509 -0.004927 0.008095 0.030059 -0.015446 0.033095 -0.013009 -0.041132 0.071936 0.020317 0.065361 0.038638 -0.033530 0.031064 0.075091 -0.004757 0.010907 -0.037658 0.009328 -0.002317 0.021996 0.013110 0.001621 -0.022509 -0.010747 -0.015542 0.002133 -0.035525 -0.021909 0.017824 0.041579 -0.078114 -0.057516 0.103866 -0.029954 -0.019226 
-0.043546 0.028715 -0.035281 0.042196 0.047747 0.005384 0.010537 0.026214 -0.021981 0.023535 0.049809 -0.028944 -0.043487 -0.013618 -0.010644 -0.016918 -0.016048 -0.036220 0.058976 0.005220 0.065988 -0.004906 0.032774 -0.021789 -0.047798 -0.030913 0.044060 0.029572 0.044730 -0.084761 0.035768 0.030869 -0.029051 0.037214 -0.046127 -0.010035 0.057050 -0.088358 -0.030167 0.063213 0.008347 0.018662 -0.003314 -0.124940 0.019744 -0.082077 0.067803 0.079276 -0.026001 0.050191 0.021282 0.018425 0.071329 0.007209 -0.017395 -0.023825 0.037563 -0.047126 -0.025984 -0.108906 0.031635 0.015207 0.066407 0.000144 0.042317 -0.002464 -0.034262 -0.002009 0.047723 0.111228 -0.014856 0.011128 0.020301 -0.027881 -0.000481 0.054822 0.024465 0.098396 0.080541 -0.023776 -0.069655 -0.007824 -0.026401 0.021000 -0.052588 0.028610 0.047626 0.065039 0.002221 -0.033709 0.016141 -0.045514 -0.014263 0.048071 0.011310 -0.006220 -0.023002 0.085190 -0.015161 0.003700 -0.007109 -0.074741 -0.022146 0.028796 -0.001754 0.058510 0.058524 0.042248 0.044267 0.091348 -0.015864 0.019820 0.045300 0.022343 0.029063 -0.021717 -0.013890 0.001121 0.003835 -0.041764 0.103789 0.039579 0.018138 0.009120 0.064041 -0.061201 0.013351 0.033987 0.071988 -0.066797 -0.033543 0.065048 -0.049517 -0.033320 -0.014966 0.011245 -0.074246 0.064805 -0.013929 0.042548 -0.059639 0.029970 0.036986 -0.008698 -0.020229 0.059885 -0.069391 -0.022889 -0.023934 0.151801 0.023738 0.076897 -0.054688 0.019589 0.033798 0.026217 0.030798 0.004436 -0.082557 0.010202 0.017158 -0.005364 0.005159 -0.019145 0.057011 0.046368 -0.007413 0.006700 0.053728 0.056408 0.006978 -0.015398 0.005210 0.030316 -0.018506 0.012001 0.018294 -0.085938 0.023831 0.066409 -0.011830 -0.038226 0.042656 -0.029122 0.004334 0.046672 -0.002075 -0.054520 0.053468 0.020020 0.015159 -0.014349 0.019512 0.003187 -0.004172 0.016940 0.018432 -0.007256 -0.051305 0.021555 0.065836 0.067153 -0.033995 0.017024 0.048156 0.011660 0.013517 0.018051 0.002372 0.038251 -0.111239 0.026290 -0.033853 -0.054288 0.034495 0.027140 0.008000 -0.027909 0.045316 -0.074490 0.033623 0.017125 0.058764 0.122712 -0.014472 0.020150 -0.043683 -0.021412 0.089644 0.006343 0.078677 0.026609 -0.033941 0.003182 -0.000298 0.044640 0.000706 0.105167 0.017462 0.006537 0.019978 -0.009887 -0.026971 -0.069409 -0.020100 0.025088 0.071437 0.012319 -0.056773 0.038624 0.058847 0.014783 0.031140 -0.080580 0.011355 -0.045325 0.009067 -0.059604 -0.026294 -0.004667 -0.008946 0.041085 -0.031470 -0.018951 -0.008808 0.033927 -0.040145 -0.000089 -0.021239 -0.023744 0.016892 -0.039981 -0.029388 0.011047 -0.003335 -0.003608 0.057493 -0.014778 0.039784 -0.029640 0.012717 0.024525 -0.060349 0.023083 0.000235 0.006783 -0.002249 0.021112 -0.007189 -0.111787 0.036468 0.076635 0.013386 -0.053499 -0.017178 -0.033185 0.059771 -0.022478 0.028264 -0.050556 -0.020029 0.019179 0.002109 -0.037959 -0.021752 -0.008565 0.030303 -0.040946 0.076520 0.018484 -0.043908 -0.005209 -0.015389 -0.013840 0.027876 0.017312 -0.042306 -0.038012 -0.019585 0.071469 0.129876 -0.039398 0.022959 -0.010360 0.006037 -0.041526 0.056405 0.060527 -0.012417 0.031524 0.042772 0.033192 -0.027729 0.030933 -0.032228 -0.028515 0.039524 -0.000566 0.079228 -0.029166 -0.026053 0.007043 -0.001378 0.072595 -0.009577 -0.027759 -0.041078 0.032767 0.012132 -0.071977 -0.030949 -0.051902 -0.026484 -0.078006 0.018933 0.004095 0.009631 -0.026006 -0.068502 0.065937 0.060844 0.020202 0.024859 -0.012901 0.029414 0.017175 0.034652 0.033348 -0.053443 0.006170 -0.024050 -0.002665 -0.047629 -0.025711 0.077733 0.004251 0.072753 0.037697 0.079087 -0.075817 0.068721 0.026094 0.074987 -0.002524 -0.006474 -0.056812 -0.021793 -0.001334 -0.002798 0.000817 -0.011109 0.005494 0.034924 0.014248 0.087470 0.019052 0.077275 -0.056234 0.091052 -0.003058 0.013442 0.065403 0.048268 0.008553 0.028020 -0.008020 0.032290 -0.027767 -0.005329 0.067409 -0.014132 0.070993 -0.003725 0.006828 0.036143 0.042487 -0.040914 0.031324 0.034733 -0.129112 0.090558 0.027214 0.016183 0.051799 -0.047887 -0.004535 0.064864 0.047844 -0.060621 -0.017193 0.027332 0.030640 0.031262 -0.025915 0.058159 0.010148 0.023851 -0.007666 0.003460 -0.046134 -0.037921 0.009685 0.046291 0.030793 -0.013922 0.005400 -0.034321 0.029427 0.059515 -0.024724 -0.017012 -0.022136 -0.027754 -0.023402 0.041581 0.045784 0.061423 0.009672 -0.070386 -0.020550 -0.010817 -0.012861 0.028744 0.046890 0.039874 0.055476 0.020997 -0.032800 0.059741 0.010376 -0.104636 -0.010239 0.039526 -0.072394 0.051183 -0.078465 0.059545 0.029092 -0.020021 0.017866 -0.054022 0.015165 0.060078 -0.026472 0.039793 0.049028 -0.030363 -0.049170 -0.041853 -0.051693 0.024883 0.094857 0.047788 0.049851 0.025022 -0.054119 -0.021351 0.025466 -0.038749 -0.003265 0.052119 -0.025677 -0.004431 -0.087383 0.015126 -0.058557 -0.047570 -0.017075 -0.022619 -0.020634 0.011575 -0.015502 -0.024543 0.021574 -0.076975 -0.017770 -0.012582 0.022429 0.008493 0.036010 0.005304 0.018863 0.064090 -0.040226 0.028858 -0.010408 -0.020902 -0.034051 0.068508 -0.040516 -0.036214 0.028663 -0.050640 0.013407 -0.045772 -0.014721 -0.054104 -0.031617 0.004648 -0.004444 -0.034758 0.120944 -0.034717 -0.056975 0.044008 0.006452 -0.009028 -0.012064 0.000452 0.058567 -0.023309 -0.036019 0.005851 0.005066 0.032580 -0.021277 -0.025176 0.028730 0.014582 -0.001718 -0.148415 0.002383 0.047716 -0.018953 0.037627 0.031704 0.049315 0.047742 -0.017808 0.029366 -0.000115 -0.025137 0.013380 0.009325 -0.047544 -0.028997 -0.014137 0.004478 0.032866 0.017611 -0.090029 -0.007137 -0.034775 0.066250 -0.083594 0.024189 -0.039528 -0.037708 -0.040871 0.026558 0.008506 0.001447 0.015633 0.004477 0.007123 0.074313 0.044470 0.037194 -0.025036 -0.033016 0.082525 -0.026355 -0.031895 0.016913 -0.018215 -0.023644 0.021834 -0.055430 -0.007310 0.024579 0.059296 -0.007348 -0.002879 -0.027382 0.007460 0.052978 0.084013 -0.041803 -0.063072 0.062720 0.048655 0.040495 0.050955 0.032904 0.011973 -0.100461 0.084500 0.078012 0.049139 -0.002656 0.011971 0.047761 0.026402 0.061783 -0.041206 -0.010946 -0.027239 0.064680 0.011924 -0.076265 0.039488 0.011414 0.082632 -0.066343 0.015039 -0.001680 0.031408 -0.036149 0.010479 -0.006033 -0.012166 -0.034339 0.025702 0.038391 -0.021864 -0.013584 -0.020601 0.026974 0.041958 -0.052810 0.011771 -0.053827 0.040988 0.045042 -0.026171 -0.040174 0.031345 -0.029585 0.000171 -0.021410 -0.002468 -0.000140 0.010175 -0.029709 0.023262 0.011282 0.052857 -0.029074 0.008035 -0.005377 0.036296 0.089839 0.057370 0.011684 0.074105 0.021033 0.003886 0.007723 -0.054157 -0.022739 -0.031610 0.024963 -0.034164 -0.037506 -0.028540 -0.025917 -0.042373 -0.003697 0.044486 -0.012973 0.036129 -0.047638 -0.011859 -0.030736 -0.024139 -0.078741 0.010626 -0.032045 0.000089 0.077402 -0.044189 0.034181 -0.008522 0.009235 0.006043 -0.020639 0.031745 -0.036584 0.058913 0.023483 -0.017104 -0.024298 -0.057136 0.000835 0.017019 0.003536 -0.033124 -0.061022 0.022503 0.013333 -0.014938 -0.024642 0.044023 0.065146 -0.042956 -0.091493 0.027833 0.014204 0.054086 0.032912 -0.087561 -0.008068 -0.024802 -0.061329 0.042194 -0.032489 -0.045328 0.003356 0.019646 0.000805 0.048099 0.054482 0.016201 0.007232 -0.065046 0.005870 0.068680 0.020575 0.028447 0.021828 0.012288 -0.028608 -0.012191 -0.046544 -0.020091 -0.032243 -0.063063 0.033803 -0.033680 -0.020497 0.029980 0.017973 -0.032103 0.093528 -0.028079 0.092052 0.005439 -0.039769 0.030584 -0.024385 -0.019428 0.031917 0.024966 -0.112752 0.000255 -0.075636 0.053756 0.007346 -0.010093 -0.036353 0.020731 0.051006 0.040371 0.047825 -0.060991 0.011786 0.016387 -0.001915 -0.003287 -0.067706 -0.013214 -0.008480 -0.035890 0.051840 0.044082 -0.038157 0.030747 0.003091 0.074231 -0.058741 -0.035452 -0.071983 0.030082 -0.064824 -0.045334 -0.018406 0.006559 -0.018939 0.045260 0.028122 0.005049 -0.044110 0.063180 -0.024428 0.103655 -0.011262 0.033771 0.031154 -0.016797 -0.038891 -0.089043 0.011112 0.032392 0.049863 0.016742 0.016756 0.005710 -0.050365 -0.029045 0.039765 0.048463 0.019311 0.006425 0.057133 0.038851 -0.021133 -0.027259 0.030772 0.006564 0.014641 -0.010493 -0.011050 -0.010680 0.055108 0.023099 0.034729 0.036214 0.069410 -0.066494 0.012050 -0.020584 0.044028 -0.019458 0.009874 0.022052 0.008330 0.040826 -0.056920 -0.062201 0.033261 0.040609 -0.030439 -0.076664 -0.035237 -0.066074 -0.060102 0.011765 -0.038118 -0.059176 0.032294 -0.062395 0.011690 0.044292 -0.024833 0.040711 -0.004500 0.004637 0.004354 -0.025673 -0.035585 0.063310 -0.010837 -0.003159 -0.004227 -0.003440 0.006128 0.018746 0.085789 -0.006019 -0.022316 -0.057191 -0.011961 0.024140 0.039551 0.010377 0.014938 -0.010203 -0.004488 0.064767 -0.011373 -0.030144 0.043785 -0.044013 -0.080136 0.015416 -0.020076 0.048489 0.032439 0.011430 -0.043820 0.034106 -0.047500 0.003815 0.013101 -0.073149 -0.081721 -0.032710 -0.026679 0.000251 0.029019 -0.004173 0.002415 0.052835 0.046885 -0.065029 -0.023341 -0.043126 0.062671 0.001520 0.023632 0.037008 0.017500 0.024235 0.051169 -0.016029 -0.067759 -0.015002 0.014237 0.012169 0.068685 -0.004427 0.024554 0.061019 0.027551 0.064816 0.068905 0.005292 -0.018846 0.001387 0.021570 -0.000579 -0.007020 -0.009858 0.016287 0.030585 0.024886 0.011550 0.008801 -0.020427 0.033785 -0.024125 -0.042270 0.037365 -0.009542 -0.080199 0.066916 -0.016074 -0.013372 -0.006286 -0.027232 0.031620 -0.030338 0.030244 -0.014726 -0.006086 0.009074 0.011294 -0.082255 0.023824 0.016904 0.018568 0.022740 -0.020115 0.025037 -0.084685 0.043743 0.055660 0.015926 -0.004601 -0.018483 -0.025949 -0.076434 -0.019146 -0.004630 0.039844 0.060040 0.078671 0.085251 0.002498 0.012515 0.056167 -0.018932 0.048486 0.022025 -0.010369 0.050841 -0.042720 0.038942 -0.012849 -0.044628 -0.053250 -0.053993 -0.039464 -0.025112 
0.016663 -0.082325 0.031517 -0.062377 0.003463 -0.053716 0.022375 0.027046 0.031909 -0.092164 -0.021015 0.012624 -0.002408 -0.037943 0.023855 0.020849 0.065978 -0.029820 0.013358 0.045543 -0.019546 -0.027665 0.030073 0.017057 0.009122 -0.023997 0.046160 0.014040 -0.056479 0.011503 -0.041242 0.060911 0.045386 -0.017722 -0.028469 -0.049051 -0.091464 -0.051556 0.032854 0.014626 -0.080162 -0.012237 0.004215 0.035771 0.030424 0.058773 -0.027245 0.010046 -0.041128 -0.016759 -0.003565 0.012116 -0.032558 -0.008926 -0.013076 -0.047249 -0.053610 0.017086 -0.073389 -0.083574 -0.042060 -0.013333 -0.012773 -0.035753 0.035509 -0.006326 0.035635 -0.027771 0.039284 -0.011709 -0.015009 0.034450 0.019121 0.071553 -0.022430 0.024609 0.011205 0.039731 0.086631 0.007785 -0.019997 -0.051694 0.025439 -0.099246 0.057264 0.011803 -0.057678 0.052116 -0.038645 0.085125 -0.014772 -0.011208 0.016342 -0.016965 0.024713 -0.074090 -0.042788 0.089166 0.024116 0.046507 -0.056188 -0.043702 -0.026305 -0.035082 -0.063090 0.005572 0.019001 0.012308 -0.020231 -0.046110 -0.037995 -0.001283 -0.014473 0.014463 -0.038197 -0.022552 0.032930 -0.018354 -0.001318 0.061737 0.008635 -0.053260 -0.010716 0.005189 0.019234 -0.055859 -0.040064 -0.021057 0.024189 0.000822 -0.000362 0.031525 -0.055840 -0.018708 -0.009012 -0.052830 0.059896 0.100872 -0.014849 0.028764 0.021749 -0.024239 -0.034770 -0.011030 -0.033269 0.025859 -0.042928 0.005683 -0.021818 0.024061 0.010259 -0.033327 -0.025341 0.021705 -0.073391 0.011599 -0.046396 0.020659 0.051535 -0.030964 -0.044848 0.030382 -0.100738 0.069312 -0.028347 -0.014658 0.022152 0.092520 -0.017336 -0.020992 -0.041334 -0.043892 -0.014261 -0.001303 -0.018907 -0.032161 0.000981 0.023638 -0.001092 -0.064119 0.044455 -0.013072 0.062599 0.045612 0.014596 0.005270 0.022443 0.048711 0.020932 -0.034179 0.032786 0.019790 -0.031315 0.011616 0.019506 -0.023506 -0.043874 -0.033111 -0.036729 -0.019161 0.022774 -0.066477 -0.076041 0.029124 0.037131 -0.002057 -0.042184 -0.108283 0.063629 -0.001944 -0.013936 -0.058499 -0.018606 -0.074264 0.024134 0.016637 0.016890 0.045008 0.007281 0.005708 -0.059535 -0.075081 -0.003134 -0.124498 -0.054192 -0.059612 -0.008454 0.004227 0.042575 -0.031177 0.005291 0.049779 -0.025393 -0.015186 0.014439 -0.002996 -0.018465 -0.007469 0.001879 0.025180 -0.055154 -0.007571 -0.066850 -0.094143 -0.029562 -0.015280 0.043409 -0.005263 -0.035420 -0.048580 -0.008982 0.015348 -0.032655 -0.028858 0.035548 0.017033 0.026609 -0.051141 0.017111 -0.084168 0.038235 0.041331 -0.012216 -0.015017 0.050824 -0.072837 0.015112 -0.017951 0.029937 0.011503 0.004920 -0.000539 0.047399 0.013091 0.068683 0.024212 -0.005599 0.071363 0.056169 -0.049040 -0.037152 0.016173 -0.009387 -0.059206 0.060115 0.022220 0.029304 -0.059862 -0.002626 0.018462 0.006349 0.007618 0.016763 -0.001569 -0.013743 0.036992 -0.056936 0.007895 0.001229 0.014040 -0.073354 -0.020229 -0.035803 0.016841 -0.014937 0.003439 -0.015156 -0.030762 -0.056439 -0.005567 -0.077948 -0.032525 -0.024767 0.046260 0.047508 -0.020238 -0.042587 -0.097748 0.033527 0.005188 0.049613 0.051076 0.052144 0.007378 -0.040805 -0.069949 -0.063560 -0.009214 -0.017180 0.003053 0.016182 0.001351 0.053942 -0.023060 0.004348 0.016074 -0.042040 0.011404 0.032834 0.021031 -0.037678 -0.042040 -0.092382 -0.000946 -0.033486 0.009741 0.059477 -0.013471 -0.000708 -0.044162 -0.000117 0.014891 0.026430 0.039389 0.022529 0.023565 0.009875 0.011935 -0.009342 -0.022580 -0.078460 -0.055745 0.010829 -0.011182 -0.050811 0.019455 -0.026796 -0.014283 -0.035529 0.037115 0.049480 -0.017167 0.076256 0.029681 -0.022697 0.074604 -0.084085 -0.056818 -0.032875 0.005694 -0.002525 -0.047131 0.059885 0.003210 0.007097 0.005032 -0.001337 -0.082585 0.014268 0.071952 -0.017127 0.018636 -0.003041 -0.030418 -0.023512 -0.008647 0.090366 -0.058331 -0.004386 -0.016783 0.009404 0.023014 0.004512 -0.006182 -0.053399 -0.011503 -0.015385 -0.000593 0.010487 -0.029365 0.005233 -0.029894 -0.021013 0.002987 0.117715 -0.043550 -0.046806 -0.016341 -0.017861 -0.026014 0.044434 0.037139 0.024937 -0.004891 0.027731 0.058243 0.002416 -0.057603 0.041475 -0.028277 -0.038912 -0.067757 -0.010383 0.051933 -0.118461 0.065659 0.011658 -0.113115 -0.008369 -0.073170 -0.021208 0.043031 0.037177 0.021672 -0.010522 0.053590 -0.021749 -0.005054 -0.028537 0.018474 -0.006794 -0.002320 0.044986 -0.010527 -0.038155 -0.027305 -0.031163 -0.048850 0.043706 0.045018 -0.028122 -0.054436 -0.054205 0.030572 -0.028352 -0.000441 -0.054067 0.008257 0.012091 0.044184 0.037473 0.004282 0.053341 -0.072420 -0.066971 0.026948 0.043643 0.022071 -0.030581 -0.012310 -0.072958 -0.006779 0.079285 -0.030368 -0.029843 0.017538 -0.025514 0.040082 0.033453 -0.007573 0.030281 -0.035063 0.065866 -0.027685 0.029694 0.007080 -0.001289 -0.027417 0.041454 -0.057126 0.022785 -0.065576 0.039274 0.037273 0.020167 0.023178 0.008797 -0.012260 -0.094784 0.001011 0.046332 0.020742 0.023387 -0.048189 -0.023090 0.002526 0.000847 0.009598 -0.053978 0.057038 0.004210 0.046030 0.000741 0.083686 0.062037 -0.017228 0.012151 -0.045308 0.012010 -0.036296 0.040471 -0.040518 0.005893 -0.032337 -0.008777 0.059492 -0.003161 -0.018890 0.111047 -0.032525 0.001865 0.088340 -0.036172 -0.048032 -0.045938 0.009906 -0.022886 0.016015 0.020067 0.041765 -0.018579 -0.050679 0.019571 -0.003370 -0.054526 0.038872 0.038440 0.009779 0.002284 -0.025561 0.036995 0.028651 0.045083 0.037135 0.040005 0.043149 -0.066970 0.047938 -0.029946 0.014708 0.010191 0.001633 -0.000058 -0.002986 0.125358 -0.038287 -0.075329 -0.040285 0.015124 0.026100 0.036602 0.100845 -0.051977 0.017270 -0.009914 -0.007325 0.034796 -0.032010 -0.053219 0.063005 0.024927 -0.052299 -0.029149 -0.047789 0.055547 0.067983 -0.004933 -0.001978 0.019752 0.021556 0.016004 0.048097 0.063837 0.033216 -0.050508 0.046683 -0.009742 -0.044277 -0.039032 -0.011873 0.043265 -0.033213 -0.009083 0.017261 0.028413 0.006601 -0.062513 -0.063271 -0.042071 0.038430 0.005615 -0.007879 -0.038661 0.057668 0.010108 -0.029585 -0.000225 0.078462 0.007822 -0.056831 0.049287 -0.022069 0.032751 0.002186 -0.016373 -0.025613 -0.033848 -0.010572 0.033011 0.001978 0.035323 -0.056959 -0.071734 0.014313 0.001056 -0.027066 -0.014226 -0.018008 -0.027222 0.017963 0.008611 0.073704 0.043326 0.020120 0.056543 -0.000481 -0.034626 -0.045712 0.001322 -0.021996 -0.034338 -0.022185 0.000602 -0.005044 0.013423 -0.045848 -0.016931 -0.038146 0.027959 -0.033359 -0.061412 -0.055319 -0.026541 -0.022189 -0.035670 0.009905 0.009860 -0.026587 -0.012992 0.083967 -0.090962 0.062350 0.003440 -0.059164 0.014003 0.010780 -0.061671 0.031218 -0.084901 -0.034796 -0.015739 -0.062016 -0.033228 0.075776 -0.008767 0.008772 -0.013128 -0.012365 -0.075812 0.069130 -0.053814 -0.036814 0.014749 0.029919 -0.058258 0.016662 0.059180 -0.030157 0.044497 -0.042328 -0.062573 0.046422 -0.020353 0.027997 0.016534 0.011784 -0.018073 -0.016231 -0.040370 -0.038116 0.085423 -0.002375 -0.023853 -0.016114 -0.048682 -0.000961 -0.039709 0.021598 -0.019789 -0.003774 0.034419 0.007454 0.040813 -0.046301 0.050270 -0.059755 0.007219 0.009651 -0.001259 0.071300 0.078864 0.014642 -0.065892 0.073813 0.086694 0.010685 0.003216 0.004748 -0.040825 0.027162 0.003967 -0.031305 -0.019106 0.033560 -0.055480 -0.077974 0.007260 0.019244 0.044609 -0.008804 0.007232 0.010118 0.016271 0.004167 -0.028568 -0.000369 0.050062 0.029653 0.024178 0.036294 -0.013874 0.008922 -0.092906 -0.062149 0.056678 0.000277 0.025889 -0.099975 0.079066 0.031840 0.043447 0.075166 0.087632 0.003370 0.050652 -0.004976 -0.004483 -0.020301 0.062898 -0.007169 -0.004412 0.004721 0.036894 0.035583 0.007312 -0.034754 0.018236 0.018973 -0.021233 0.003236 -0.041255 0.054308 -0.019168 -0.035600 -0.071119 0.022475 0.023821 0.003818 0.028089 0.033146 -0.115590 0.005976 0.059779 0.044947 0.029953 0.013751 0.007902 0.020728 -0.049272 -0.002643 0.115896 0.001049 0.077489 -0.016621 0.046211 0.041676 0.045068 -0.018651 -0.030123 0.043599 -0.020829 -0.018395 -0.001328 0.048176 0.042171 0.002956 -0.010490 0.007436 -0.031732 0.011576 0.030592 -0.005231 0.016936 -0.072387 0.017278 0.046276 -0.075812 -0.025778 0.052529 -0.025247 -0.120696 0.032650 0.058577 0.056544 0.020418 0.024483 -0.024448 -0.020444 0.048787 0.002720 -0.020292 0.033896 0.020591 0.038571 -0.009235 0.059004 0.015748 0.029886 -0.083196 0.019390 0.035989 0.017559 -0.002588 0.057374 0.004885 -0.018420 -0.037655 -0.038818 -0.019921 -0.053039 0.019992 -0.028375 -0.021414 0.022585 0.137193 -0.005283 -0.016845 -0.017486 -0.051906 0.025739 0.025848 -0.021880 -0.060627 0.016196 -0.017719 -0.054184 0.061557 0.069703 0.047938 -0.127891 -0.005236 0.019618 0.059057 0.012271 -0.030908 -0.007871 0.029912 -0.013815 -0.014427 0.023902 0.095883 -0.010155 0.017887 -0.042752 -0.006162 0.023263 -0.063445 -0.021981 0.041700 0.025010 0.002680 -0.016327 -0.071132 -0.049720 0.085980 0.021956 -0.002446 0.020326 0.037415 0.038185 0.073207 -0.032905 0.035043 -0.006426 0.077258 -0.051577 0.060456 -0.067271 -0.055333 -0.027944 -0.036201 -0.028244 0.023846 0.037966 -0.006627 0.064966 0.020260 0.040249 -0.031280 -0.032949 0.038740 0.001860 0.018032 -0.041887 0.048024 0.024585 -0.061377 0.059752 -0.033583 -0.014710 0.005292 -0.019619 -0.069955 -0.005765 0.029144 0.036476 -0.029612 -0.011760 0.055214 0.129273 0.003486 -0.007110 -0.027448 0.058954 0.012050 0.022184 -0.010561 0.070298 -0.000354 -0.064972 0.025540 -0.030071 -0.067064 -0.014461 0.044841 -0.037087 -0.011134 -0.009002 0.005540 0.039994 0.053083 -0.006257 0.038553 -0.064210 -0.034231 -0.053982 0.017803 -0.019138 0.023597 0.024475 0.020336 0.019206 0.016934 -0.045395 -0.062348 -0.026480 -0.002694 0.000590 0.025892 0.026954 0.035308 0.061336 0.029010 0.034599 0.019113 0.001019 0.029761 0.025539 -0.031647 -0.013007 0.081419 -0.009195 -0.021270 -0.010274 
